
\data\
ngram 1=247
ngram 2=1852
ngram 3=2954
ngram 4=319
ngram 5=217

\1-grams:
-2.313398	जी	-0.368492
-3.267641	थे	-0.105251
-3.267641	रै	-0.105251
-2.422543	नु	-0.214395
-3.267641	लु	-0.105251
-2.966611	भ्	-0.105251
-1.586400	न	-0.587701
-2.568671	गा	-0.281342
-2.966611	भी	-0.105251
-2.966611	झ	-0.105251
-3.267641	ग्	-0.105251
-2.188460	स्	-0.177801
-1.852668	व	-0.399219
-2.966611	फ	-0.105251
-2.489490	मु	-0.105251
-2.422543	रू	-0.105251
-3.267641	डी	-0.105251
-2.790520	ज़ा	-0.281342
-2.364551	शि	-0.146643
-3.267641	हू	-0.105251
-99.000000	<s>	-2.176314
-3.267641	ब्	-0.105251
-2.226248	च	-0.271582
-2.422543	दु	-0.256518
-2.121513	वी	-0.679282
-1.568671	म	-0.458669
-2.790520	फा	-0.406281
-2.489490	मी	-0.230189
-3.267641	थ्	-0.105251
-2.790520	ध्	-0.230189
-2.966611	चे	-0.406281
-2.966611	चा	-0.105251
-3.267641	गो	-0.105251
-3.267641	ऐ	-0.105251
-3.267641	स्सु	-0.105251
-2.665581	त्त	-0.281342
-1.543365	र	-0.423314
-2.665581	सी	-0.230189
-2.966611	यू	-0.105251
-1.699439	मा	-0.503191
-3.267641	क्कू	-0.105251
-3.267641	गु	-0.105251
-3.267641	लू	-0.105251
-3.267641	गी	-0.105251
-3.267641	क्की	-0.105251
-2.364551	ण	-0.582372
-3.267641	ठा	-0.105251
-2.966611	बु	-0.105251
-2.966611	को	-0.105251
-2.063521	क्	-0.313527
-2.422543	ष्	-0.230189
-1.776279	न्	-0.389247
-2.790520	नो	-0.105251
-3.267641	ल्लु	-0.105251
-3.267641	षे	-0.105251
-3.267641	ठ	-0.105251
-2.665581	ज्	-0.202161
-2.188460	ती	-0.503191
-2.188460	प्	-0.406281
-2.313398	दी	-0.281342
-2.790520	गू	-0.105251
-2.790520	सि	-0.105251
-2.790520	तो	-0.105251
-3.267641	ज़	-0.105251
-3.267641	ल्ल	-0.105251
-2.226248	पा	-0.294307
-3.267641	थु	-0.105251
-3.267641	र्रा	-0.105251
-2.790520	गि	-0.230189
-2.121513	वा	-0.165948
-2.489490	ल्	-0.184432
-2.489490	जा	-0.582372
-2.790520	से	-0.105251
-2.422543	ले	-0.348289
-3.267641	इ	-0.105251
-2.790520	धा	-0.105251
-2.790520	ई	-0.163243
-2.790520	धु	-0.143039
-2.489490	मो	-0.230189
-1.887430	श्	-0.482669
-2.665581	शो	-0.105251
-2.966611	सै	-0.105251
-1.711339	नी	-0.697326
-2.790520	खा	-0.582372
-2.966611	धी	-0.105251
-1.805243	ला	-0.544583
-3.267641	ज़	-0.105251
-3.267641	यी	-0.105251
-3.267641	प्पा	-0.105251
-3.267641	बू	-0.105251
-2.966611	आ	-0.105251
-3.267641	च्	-0.105251
-1.925218	री	-0.381457
-3.267641	शै	-0.105251
-3.267641	पो	-0.105251
-3.267641	ज्ञा	-0.105251
-2.121513	शी	-0.432610
-3.267641	फी	-0.105251
-2.966611	ल्ली	-0.105251
-2.665581	हु	-0.105251
-1.966611	ली	-0.728500
-2.568671	ते	-0.473227
-2.153698	ग	-0.192401
-2.790520	ृ	-0.146643
-2.313398	हि	-0.230189
-2.153698	शा	-0.406281
-3.267641	दू	-0.105251
-2.091550	प	-0.316104
-2.568671	ही	-0.184432
-2.226248	हा	-0.184432
-2.966611	भु	-0.105251
-3.267641	छ	-0.105251
-2.966611	मू	-0.105251
-3.267641	फ़ि	-0.105251
-1.238257	</s>
-3.267641	रॉ	-0.105251
-2.313398	कु	-0.348289
-3.267641	षु	-0.105251
-2.422543	दे	-0.301545
-3.267641	 	-0.105251
-2.665581	बी	-0.105251
-3.267641	तू	-0.105251
-2.121513	वि	-0.217955
-2.568671	रो	-0.105251
-2.665581	षि	-0.230189
-2.489490	सा	-0.141463
-2.790520	ये	-0.281342
-2.966611	भि	-0.105251
-3.267641	खि	-0.105251
-3.267641	षी	-0.105251
-2.790520	पे	-0.105251
-3.267641	णी	-0.105251
-2.665581	जु	-0.105251
-2.226248	ष	-0.582372
-3.267641	त्ते	-0.105251
-3.267641		-0.105251
-2.267641	लि	-0.348289
-2.568671	म्	-0.309371
-2.966611	म्म	-0.105251
-1.762491	ता	-0.442493
-1.776279	श	-0.617134
-3.267641	ल्लि	-0.105251
-1.869701	द	-0.406281
-2.790520	खी	-0.582372
-2.790520	थि	-0.105251
-2.091550	मि	-0.289775
-2.422543	ख	-0.348289
-2.966611	मै	-0.105251
-2.966611	णि	-0.105251
-3.267641	घि	-0.105251
-3.267641	कौ	-0.105251
-3.267641	ल्ला	-0.105251
-2.121513	ति	-0.368492
-2.063521	नि	-0.198005
-3.267641	्	-0.105251
-1.687857	ं	-0.420839
-3.267641	नू	-0.105251
-2.665581	तु	-0.202161
-1.614428	ना	-0.531219
-3.267641	ड़ि	-0.105251
-3.267641	क़	-0.105251
-1.988887	स	-0.256518
-1.762491	का	-0.499035
-3.267641	टी	-0.105251
-1.966611	ज	-0.406281
-3.267641	जै	-0.105251
-3.267641	चै	-0.105251
-2.966611	सू	-0.105251
-3.267641	अ	-0.105251
-3.267641	शे	-0.105251
-2.489490	वे	-0.151008
-3.267641	छा	-0.105251
-2.568671	बि	-0.105251
-3.267641	ए	-0.105251
-2.665581	भा	-0.281342
-2.665581	शु	-0.230189
-2.226248	ब	-0.441043
-2.790520	हे	-0.105251
-2.966611	जो	-0.105251
-3.267641	टि	-0.105251
-2.489490	था	-0.281342
-3.267641	वै	-0.105251
-3.267641	णु	-0.105251
-2.790520	की	-0.281342
-2.966611	ओ	-0.406281
-2.966611	त्ति	-0.105251
-3.267641	सो	-0.105251
-3.267641	शौ	-0.105251
-2.665581	व्	-0.309371
-1.604883	ल	-0.496457
-2.790520	यो	-0.105251
-2.226248	दि	-0.165948
-3.267641	उ	-0.105251
-2.364551	मे	-0.192401
-2.665581	सु	-0.105251
-2.489490	यु	-0.230189
-2.489490	षा	-0.406281
-2.313398	के	-0.503191
-2.364551	द्	-0.230189
-3.267641	ग़ौ	-0.105251
-2.489490	जे	-0.184432
-2.226248	रु	-0.165948
-3.267641	म्मी	-0.105251
-1.805243	या	-0.746229
-3.267641	णा	-0.105251
-2.790520	त्ता	-0.105251
-3.267641	तौ	-0.105251
-3.267641	ण्	-0.105251
-3.267641	कै	-0.105251
-2.568671	जि	-0.202161
-2.790520	ँ	-0.105251
-2.665581	थ	-0.406281
-2.966611	मौ	-0.105251
-2.422543	कि	-0.172197
-2.364551	ध	-0.327099
-1.790520	त	-0.447673
-1.905913	य	-0.582372
-1.988887	दा	-0.447673
-2.364551	भ	-0.281342
-2.966611	गे	-0.406281
-3.267641	भू	-0.105251
-2.568671	ने	-0.327099
-2.665581	लो	-0.230189
-3.267641	द्द	-0.105251
-3.267641	झि	-0.105251
-3.267641	ख़ु	-0.105251
-1.905913	र्	-0.266102
-2.790520	पि	-0.230189
-3.267641	ज्जा	-0.105251
-2.966611	ज्ज	-0.105251
-2.188460	ह	-0.154469
-3.267641	फि	-0.105251
-2.790520	ट	-0.105251
-2.489490	चि	-0.202161
-2.790520	थी	-0.582372
-1.836277	क	-0.430640
-1.966611	रि	-0.256518
-2.966611	घ	-0.230189
-2.364551	धि	-0.163243
-3.267641	खे	-0.105251
-1.711339	रा	-0.444739
-2.966611	पु	-0.105251
-1.925218	त्	-0.351923
-3.267641	ची	-0.105251
-2.665581	बा	-0.172197
-2.267641	रे	-0.339334
-3.267641	पी	-0.105251

\2-grams:
-1.164868	ग ं	-0.055558
-1.570582	वै दे	-0.055558
-2.319399	ना दी	-0.055558
-1.683275	दु क	-0.055558
-1.758072	ष त्	-0.055558
-2.482573	र मो	-0.055558
-1.462395	स् म	-0.055558
-1.912698	ह स्	-0.055558
-1.261467	नी त	-0.532679
-1.306014	रो का	-0.055558
-0.122640	<s> 	-0.879466
-2.045828	सा ची	-0.055558
-1.880235	द ं	-0.055558
-2.265296	अ नू	-0.055558
-1.389844	भि म	-0.055558
-2.011224	वि हा	-0.055558
-1.387864	व् र	-0.055558
-1.060510	त्ता रा	-0.055558
-0.709386	दा स	-0.754528
-1.554013	दे श	-0.055558
-2.407577	 गा	-0.055558
-1.690123	दि त	-0.055558
-0.657817	ज़ हा	-0.055558
-1.946091	ता रा	-0.055558
-0.640587	णु का	-0.055558
-0.339262	ना </s>
-1.684371	अ मा	-0.055558
-2.495279	म हु	-0.055558
-2.265296	अ खि	-0.055558
-2.035247	र् वि	-0.055558
-2.420302	ं कि	-0.055558
-1.686766	म नी	-0.055558
-1.453866	मे ना	-0.055558
-2.290959	स नो	-0.055558
-0.361211	ज़ा </s>
-2.578236	 मौ	-0.055558
-0.916610	त्ति का	-0.055558
-1.996107	अ स्	-0.055558
-1.432633	ल् पि	-0.055558
-1.219319	र् व	-0.055558
-1.891580	री या	-0.055558
-2.154720	री फा	-0.055558
-0.732300	ख न	-0.356587
-0.471327	सी </s>
-2.654190	 ज्ञा	-0.055558
-1.026564	मि ता	-0.231649
-2.129412	ता क्	-0.055558
-1.240739	व री	-0.657618
-0.815451	भु </s>
-1.490599	चि र	-0.055558
-0.683206	जी व	-0.180496
-1.789167	दु प्	-0.055558
-1.225682	र् य	-0.055558
-2.102357	री कि	-0.055558
-1.530693	उ म	-0.055558
-1.747888	पा स	-0.055558
-2.091092	रा य	-0.055558
-1.949348	र ना	-0.055558
-1.141202	रू </s>
-1.075224	पा ल	-0.356587
-1.614554	द् रि	-0.055558
-1.834743	री मा	-0.055558
-1.674719	रु का	-0.055558
-2.149386	न ता	-0.055558
-2.220790	स वे	-0.055558
-1.353160	रो ली	-0.055558
-0.742881	ब र	-0.532679
-1.261554	शु तो	-0.055558
-1.058527	हि नी	-0.356587
-2.075977	अ धि	-0.055558
-1.930795	सा ध	-0.055558
-1.815211	रि त	-0.055558
-1.117686	शो र	-0.055558
-1.567668	दी ना	-0.055558
-2.292469	मा ले	-0.055558
-1.064891	हि ता	-0.356587
-1.611047	सु ख	-0.055558
-1.205656	से ली	-0.055558
-2.285380	 मे	-0.055558
-1.040079	चि त	-0.055558
-0.931516	थि </s>
-2.054112	मा या	-0.055558
-1.034636	ग </s>
-1.724198	उ द	-0.055558
-1.740854	च ला	-0.055558
-1.786199	श् र	-0.055558
-1.244973	रु ष	-0.055558
-2.317117	स चे	-0.055558
-1.655456	जी ब	-0.055558
-1.053623	हे </s>
-1.642044	जी वी	-0.055558
-0.489780	शा </s>
-2.654190	 गु	-0.055558
-2.123413	रि लो	-0.055558
-1.372972	गा य	-0.055558
-1.088545	मा ला	-0.277406
-0.584095	णा </s>
-2.003376	क त	-0.055558
-1.046660	न् द	-0.277406
-0.332396	ता </s>
-0.983758	द् ध	-0.055558
-1.570840	इ ं	-0.055558
-2.654190	 हू	-0.055558
-0.776164	कु ं	-0.113549
-2.525828	ं थि	-0.055558
-1.031860	तो म	-0.055558
-0.811227	ष् ण	-0.055558
-0.144087	जा </s>
-2.059915	न् ज	-0.055558
-1.818035	मि द	-0.055558
-0.910577	पु रा	-0.055558
-2.578236	 जो	-0.055558
-0.932070	को री	-0.055558
-0.778530	मो ल	-0.356587
-1.834564	ग ति	-0.055558
-2.203827	य ण	-0.055558
-2.050746	श् रु	-0.055558
-0.239220	फा </s>
-2.009739	सा थी	-0.055558
-1.722019	पा र्	-0.055558
-1.917764	क् ख	-0.055558
-0.720094	व </s>
-2.032855	रा ला	-0.055558
-1.904577	न् मा	-0.055558
-1.183744	सि र	-0.055558
-1.980356	दि पे	-0.055558
-1.309940	ं ग	-0.423534
-1.443943	या ग	-0.055558
-1.689144	मु ह	-0.055558
-2.278563	य प्पा	-0.055558
-2.654190	 ठा	-0.055558
-0.664219	त्त म	-0.356587
-1.919658	इ नो	-0.055558
-1.246313	मि नी	-0.356587
-1.518046	जि व	-0.055558
-0.801361	व् य	-0.180496
-1.415710	ई श	-0.055558
-2.247532	नी जा	-0.055558
-1.936736	वा ल्	-0.055558
-1.996107	अ ह	-0.055558
-2.322344	मा ने	-0.055558
-1.247157	बि का	-0.055558
-1.592734	मु श्	-0.055558
-1.917364	श् या	-0.055558
-0.419915	लि का	-0.833709
-1.249130	शु भ	-0.055558
-1.576766	मे ली	-0.055558
-1.595838	म यी	-0.532679
-1.592984	हि ं	-0.055558
-1.368174	न व	-0.180496
-1.980029	का मा	-0.055558
-1.563496	सा न	-0.055558
-1.868757	क न	-0.055558
-0.310638	ति </s>
-1.675591	ृ षि	-0.055558
-2.246507	ता रू	-0.055558
-1.688728	प् ती	-0.055558
-2.223901	द त्त	-0.055558
-1.561745	म् बु	-0.055558
-0.369800	के श	-0.754528
-1.211776	ं ज	-0.122504
-1.479842	भि ता	-0.055558
-1.785006	सा रि	-0.055558
-1.345099	म ल	-0.180496
-1.592580	ब ल	-0.055558
-0.717660	ई </s>
-1.658655	सु रै	-0.055558
-1.660335	जि ग्	-0.055558
-1.550400	ग र	-0.055558
-1.255007	आ </s>
-2.308733	ल जी	-0.055558
-0.666268	ल्लु पी	-0.055558
-1.961051	च तु	-0.055558
-2.213761	न द	-0.055558
-1.654574	मु क्	-0.055558
-1.671911	रि म	-0.055558
-0.675694	जे श्	-0.231649
-0.874360	रि का	-0.754528
-1.980356	वा की	-0.055558
-1.701879	नु श्	-0.055558
-1.645182	लि त	-0.055558
-0.706613	ज </s>
-2.011787	ल मा	-0.055558
-1.839996	दु मु	-0.055558
-2.003126	ज ग	-0.055558
-2.307898	र शी	-0.055558
-0.198950	ती </s>
-2.430969	ल ल्ली	-0.055558
-1.664174	कु व	-0.055558
-2.347668	त फा	-0.055558
-1.512342	शि या	-0.055558
-2.415726	ना सि	-0.055558
-2.556767	ं झ	-0.055558
-0.962849	रे न्	-0.356587
-1.567926	दि न	-0.055558
-2.654190	 झि	-0.055558
-1.693360	अ रा	-0.055558
-1.534679	ृ द	-0.055558
-1.249130	ट मु	-0.055558
-2.279763	व शि	-0.055558
-2.162509	 ह	-0.055558
-1.184119	दा र	-0.356587
-1.652440	ृ दु	-0.055558
-1.826532	आ दि	-0.055558
-2.578236	 चे	-0.055558
-1.546293	शि र्	-0.055558
-0.584095	ज़ </s>
-2.219554	त ब	-0.055558
-2.017686	न म	-0.055558
-1.909754	हा फ़ि	-0.055558
-1.618628	सु मी	-0.055558
-1.041877	मै ना	-0.055558
-0.909330	जि ते	-0.055558
-2.172793	क वा	-0.055558
-2.207786	नी ष	-0.055558
-1.185449	लो नी	-0.055558
-2.078694	र् च	-0.055558
-1.339230	त् री	-0.356587
-2.362914	 सा	-0.055558
-2.231583	<s> ए	-0.423534
-1.623608	मा लि	-0.231649
-2.290282	र मि	-0.055558
-1.233039	प ना	-0.356587
-1.831170	अ र्	-0.055558
-2.246507	ता ख	-0.055558
-2.035247	र् शी	-0.055558
-0.190384	या </s>
-1.071218	धी श	-0.055558
-2.654190	 लु	-0.055558
-1.919286	नि ष	-0.055558
-1.404839	या न	-0.055558
-1.949530	त ं	-0.055558
-1.942836	प प्	-0.055558
-0.662868	ग् ने	-0.055558
-2.205903	त प्	-0.055558
-1.624430	र ती	-0.231649
-2.020049	उ पे	-0.055558
-2.112047	 शी	-0.055558
-1.865235	आ शि	-0.055558
-0.612503	ज् यो	-0.055558
-2.201033	र् षि	-0.055558
-1.995927	वा फ	-0.055558
-1.778744	शा यु	-0.055558
-1.922871	आ लो	-0.055558
-2.375818	ं कु	-0.055558
-1.856082	क म	-0.055558
-0.122906	खी </s>
-2.304046	न् नो	-0.055558
-0.503106	गि ता	-0.055558
-1.044540	हि ना	-0.356587
-0.961365	ल्ल भा	-0.055558
-2.284071	रा धि	-0.055558
-1.129922	गु न	-0.055558
-1.910586	नु भू	-0.055558
-1.790997	आ शी	-0.055558
-1.441867	जा फ	-0.055558
-1.675563	अ ं	-0.055558
-1.731207	वा द	-0.055558
-2.397491	ं भ	-0.055558
-2.181359	ला दि	-0.055558
-2.136002	या प्	-0.055558
-2.011224	वि दि	-0.055558
-2.606101	र सू	-0.055558
-1.794295	त् मा	-0.055558
-1.179794	दि नी	-0.356587
-1.589067	सु रे	-0.055558
-1.893098	आ यु	-0.055558
-1.531331	वै शा	-0.055558
-2.190123	 दि	-0.055558
-2.103551	द ग	-0.055558
-0.927706	द् र	-0.142708
-1.716024	नि ता	-0.055558
-1.869386	री का	-0.055558
-0.942572	त् या	-0.055558
-1.584762	इ रा	-0.055558
-2.124002	म क	-0.055558
-1.607044	प् ता	-0.055558
-0.489501	ले श	-0.532679
-2.407577	 जि	-0.055558
-1.346116	त् स	-0.055558
-1.234676	घ वि	-0.055558
-0.633085	त्त </s>
-0.983049	<s> अ	-0.467412
-1.957989	नि धि	-0.055558
-2.116791	मा री	-0.055558
-1.294012	का न	-0.231649
-0.644628	षे क	-0.055558
-1.457829	मो द	-0.055558
-1.260125	यो ना	-0.055558
-1.075577	मै ला	-0.055558
-2.654190	 सो	-0.055558
-2.221705	र् धा	-0.055558
-2.012077	वा डी	-0.055558
-1.387698	रो ह	-0.055558
-1.443743	य म	-0.356587
-1.658748	शा न्	-0.055558
-0.643811	म </s>
-0.986128	ण वी	-0.055558
-2.195045	ना दा	-0.055558
-1.676050	सा का	-0.055558
-0.819403	प </s>
-2.362914	 जा	-0.055558
-1.360881	र् म	-0.055558
-1.907115	नि स्	-0.055558
-2.127457	वि जु	-0.055558
-1.400620	ही ष	-0.055558
-1.228075	बि ं	-0.055558
-2.105955	व ज	-0.055558
-1.450916	हु ष	-0.055558
-1.733999	च त	-0.055558
-1.495855	का म	-0.055558
-2.654190	 कौ	-0.055558
-2.054591	अ हि	-0.055558
-2.381189	ना गा	-0.055558
-2.407577	 ही	-0.055558
-2.357580	व थ	-0.055558
-1.709086	दु र्	-0.055558
-1.683591	शि खा	-0.055558
-2.243409	र् भु	-0.055558
-0.643007	फि या	-0.055558
-1.739911	दि श्	-0.055558
-1.816637	ह ज	-0.055558
-1.056300	गू ं	-0.055558
-1.598425	हि मा	-0.055558
-2.496947	ं जु	-0.055558
-1.551751	हि ल	-0.055558
-1.124591	वि नी	-0.532679
-1.249130	ँ सा	-0.055558
-1.249130	कौ मु	-0.055558
-1.865349	दा रि	-0.055558
-1.566753	नु ल	-0.055558
-1.765003	ति का	-0.055558
-1.564518	धु श्	-0.055558
-1.508548	भि क	-0.055558
-1.310017	गो वि	-0.055558
-1.922871	आ शु	-0.055558
-1.536480	य  	-0.356587
-1.842287	ं गा	-0.055558
-1.334212	था मा	-0.055558
-0.916418	मे श	-0.356587
-0.895850	जो ल	-0.055558
-1.921900	ल म	-0.055558
-2.069855	द क्	-0.055558
-2.335608	रा ने	-0.055558
-1.750371	ज म	-0.055558
-2.023620	री ति	-0.055558
-1.615732	का म्	-0.055558
-1.822748	हि ते	-0.055558
-1.588565	ध ना	-0.055558
-2.154720	री ज़ा	-0.055558
-1.944701	नि के	-0.055558
-2.079875	क री	-0.055558
-0.875025	वे श	-0.356587
-2.022330	त या	-0.055558
-1.797236	दु हा	-0.055558
-1.926347	र न	-0.055558
-1.599244	ं शु	-0.532679
-0.122906	थी </s>
-1.257688	ज् रा	-0.055558
-1.084228	चि त्त	-0.356587
-1.938559	आ ध्	-0.055558
-1.786261	वा स	-0.055558
-1.693390	मे घ	-0.055558
-1.482269	मी दा	-0.055558
-2.098471	अ नु	-0.055558
-1.788273	वि न्	-0.055558
-2.537055	न घ	-0.055558
-1.001589	कु र	-0.356587
-2.118059	व स	-0.055558
-1.675452	द् रे	-0.055558
-1.283141	ह र्	-0.231649
-1.710221	धु बा	-0.055558
-1.448694	ख ली	-0.055558
-1.637337	इ ला	-0.055558
-2.578236	 सै	-0.055558
-2.060261	<s> ई	-0.277406
-1.855642	ग स्	-0.055558
-2.263570	म नि	-0.055558
-2.292469	मा ख	-0.055558
-1.888491	क ना	-0.055558
-1.196157	गि न्	-0.055558
-2.322419	 ख	-0.055558
-1.431767	<s> आ	-0.356587
-1.372972	गा र्	-0.055558
-1.903555	ल र	-0.055558
-0.986154	रि या	-0.657618
-0.584095	क्कू </s>
-1.943641	श ना	-0.055558
-1.836403	इ हि	-0.055558
-1.318093	मा ल	-0.055558
-1.248817	प मा	-0.055558
-0.503106	षि ता	-0.356587
-1.704978	हा री	-0.055558
-1.932099	द न्	-0.055558
-2.016816	रि दि	-0.055558
-1.697271	हा य	-0.055558
-2.123413	रि षि	-0.055558
-1.555220	हा ना	-0.055558
-1.702488	शी नी	-0.055558
-2.184222	व शी	-0.055558
-2.457365	 शो	-0.055558
-1.126648	खि ले	-0.055558
-0.654482	नू प	-0.055558
-1.917431	ति लि	-0.055558
-2.495279	म थ	-0.055558
-2.322419	 दु	-0.055558
-1.856332	क् ति	-0.055558
-1.112113	तो शा	-0.055558
-1.257333	व ती	-0.657618
-2.014740	अ रु	-0.055558
-1.416400	रि </s>
-1.231198	हे मा	-0.055558
-1.177831	म ं	-0.152468
-2.213494	क च	-0.055558
-2.654190	 कै	-0.055558
-2.510319	र ते	-0.055558
-2.134765	रा स	-0.055558
-2.251253	 कु	-0.055558
-1.938559	आ ये	-0.055558
-1.694733	नु द	-0.055558
-2.521571	म धु	-0.055558
-0.642402	ध र	-0.277406
-1.931893	स द	-0.055558
-2.050245	नी रा	-0.055558
-2.009739	सा ई	-0.055558
-1.231131	वा नि	-0.055558
-2.394093	रा भ्	-0.055558
-2.146266	म द	-0.055558
-1.627903	तु जा	-0.055558
-0.756825	कि शो	-0.356587
-2.251253	 हि	-0.055558
-1.179794	दि रा	-0.356587
-2.322419	 रू	-0.055558
-2.408610	र के	-0.055558
-1.668963	द् रु	-0.055558
-1.630358	सा ं	-0.055558
-1.298970	हु ल	-0.055558
-1.671908	 ल	-0.055558
-1.764841	र क	-0.055558
-2.654190	 थे	-0.055558
-2.297105	ला दू	-0.055558
-0.935229	हू रि	-0.055558
-2.327974	म ह	-0.055558
-0.662022	च् यु	-0.055558
-2.032855	रा या	-0.055558
-1.490704	धु मा	-0.055558
-2.273354	र क्	-0.055558
-1.122562	ये शा	-0.055558
-0.935229	शै ली	-0.055558
-1.782897	ति ला	-0.055558
-1.818212	ं के	-0.055558
-1.682353	रु न्	-0.055558
-1.124986	से म	-0.055558
-0.936222	त् रा	-0.657618
-1.600658	का लि	-0.055558
-2.457365	 ज्	-0.055558
-1.653703	हा ला	-0.055558
-2.525828	ं धु	-0.055558
-1.416309	मो नी	-0.055558
-1.691741	ृ त्ति	-0.055558
-2.041753	ना नी	-0.055558
-2.362914	 जे	-0.055558
-0.211707	गे श	-0.356587
-1.855924	नु मो	-0.055558
-1.484922	मे ं	-0.055558
-1.698035	दि ला	-0.055558
-1.922871	आ भा	-0.055558
-0.785773	धि का	-0.356587
-1.978955	श् रि	-0.055558
-1.228075	सि ं	-0.055558
-1.003727	ट </s>
-2.335470	ं पा	-0.055558
-1.680329	ग ता	-0.055558
-1.574981	रा न्	-0.055558
-1.870309	अ ज	-0.055558
-1.453529	स ं	-0.055558
-1.824629	वि क	-0.055558
-1.720407	ह त	-0.055558
-1.243691	रो म	-0.055558
-1.755802	री म	-0.055558
-0.651172	फी दा	-0.055558
-0.672076	ल् या	-0.356587
-1.075577	खि ला	-0.055558
-2.447035	म जा	-0.055558
-0.640587	पो ता	-0.055558
-2.265296	अ थ्	-0.055558
-1.498635	ई शा	-0.055558
-1.642044	जी वि	-0.055558
-1.900298	त ना	-0.055558
-1.728007	स् वे	-0.055558
-1.834642	उ मि	-0.055558
-0.835447	न् द्	-0.708770
-1.039855	खि ल	-0.055558
-1.717149	त् म	-0.055558
-2.278269	मा ध	-0.055558
-1.782897	ति या	-0.055558
-2.246507	ता नु	-0.055558
-1.452826	वे नी	-0.055558
-0.629469	झि ल	-0.055558
-2.036225	ह सी	-0.055558
-2.457365	 शु	-0.055558
-0.584095	क़ </s>
-2.654190	 शौ	-0.055558
-2.356976	ल जा	-0.055558
-0.336406	त </s>
-2.335470	ं ब	-0.055558
-1.965324	रु तु	-0.055558
-1.839939	सा मि	-0.055558
-1.228075	हे ं	-0.055558
-1.787045	उ दा	-0.055558
-1.615672	च म	-0.055558
-1.614554	प् त	-0.055558
-2.654190	 खे	-0.055558
-1.563789	वै भ	-0.055558
-2.059341	रि शि	-0.055558
-2.059341	रि धि	-0.055558
-2.190123	 हा	-0.055558
-0.878211	जि ता	-0.055558
-2.162427	र् चि	-0.055558
-1.971697	नि ष्	-0.055558
-1.522978	द म्	-0.055558
-1.193994	पि का	-0.055558
-1.685209	दे व्	-0.055558
-1.909209	ति रु	-0.055558
-1.500411	हु सै	-0.055558
-2.044991	नी मा	-0.055558
-1.500816	रू पा	-0.055558
-1.226849	कौ शा	-0.055558
-0.635787	थे ं	-0.055558
-2.097941	मा श्	-0.055558
-1.368630	मी म	-0.055558
-2.060146	स प	-0.055558
-0.660379	दी प	-0.122504
-2.105955	व ली	-0.055558
-1.954053	 री	-0.055558
-2.181301	र् गा	-0.055558
-1.903101	र भा	-0.055558
-1.302885	मि ष	-0.356587
-1.192508	च न्	-0.055558
-1.004994	स् मि	-0.356587
-1.434691	यु श	-0.055558
-2.434083	ना गे	-0.055558
-2.135360	ल य	-0.055558
-2.478569	न ते	-0.055558
-0.630253	ज्ञा ना	-0.055558
-0.657817	रॉ च	-0.055558
-2.362914	 वे	-0.055558
-0.389555	न </s>
-1.828175	शी ष	-0.055558
-1.647211	भि रू	-0.055558
-1.420107	बा ली	-0.055558
-2.431892	र धि	-0.055558
-0.643007	थ् या	-0.055558
-2.219554	त पा	-0.055558
-0.664565	तौ की	-0.055558
-1.645460	रु नी	-0.055558
-1.276729	ं ता	-0.277406
-1.717247	स म	-0.055558
-1.776850	ग रि	-0.055558
-1.934574	ल न	-0.055558
-1.954053	 त्	-0.055558
-1.745227	स ल	-0.055558
-2.212963	ला भ	-0.055558
-0.569236	श् व	-0.435769
-0.433441	का </s>
-2.105761	ल व	-0.055558
-1.830083	ं दु	-0.113549
-1.235744	य ं	-0.231649
-1.338785	री ना	-0.055558
-1.403816	ख रा	-0.055558
-0.929287	न ं	-0.318799
-2.264531	ं प	-0.055558
-1.663837	ह मा	-0.055558
-1.877796	च स्	-0.055558
-2.316931	व जे	-0.055558
-0.796844	पा </s>
-1.754486	उ त्	-0.055558
-1.568709	लि न	-0.055558
-1.758072	दी पा	-0.055558
-2.317741	रा जे	-0.055558
-1.902840	सा लि	-0.055558
-1.031860	धा म	-0.055558
-1.432633	जे की	-0.055558
-2.112047	 ति	-0.055558
-0.122906	खा </s>
-1.095749	नो ली	-0.055558
-1.517154	यु ष	-0.055558
-0.659494	ठा कु	-0.055558
-1.785006	सा ज	-0.055558
-2.284071	रा मे	-0.055558
-2.469868	ं जि	-0.055558
-1.557818	प् ल	-0.055558
-2.092255	या ज	-0.055558
-1.403101	द म	-0.055558
-1.188279	से व	-0.055558
-1.513887	मु रा	-0.055558
-1.827545	ह स	-0.055558
-0.347938	य </s>
-1.194006	द र	-0.532679
-2.345686	म हा	-0.055558
-2.155221	त नि	-0.055558
-1.071218	भी श	-0.055558
-1.577483	वै सा	-0.055558
-1.607044	ण न	-0.055558
-2.136546	 शा	-0.055558
-1.846029	शी ध	-0.055558
-1.231107	प ल	-0.356587
-1.420350	ल् मी	-0.055558
-1.192525	रा म	-0.277406
-3.684800	<s> ऐ	-0.055558
-2.579475	म णी	-0.055558
-2.093413	ह बू	-0.055558
-1.965769	उ ल्	-0.055558
-2.654190	 टि	-0.055558
-1.526331	मो हि	-0.055558
-2.194128	द यु	-0.055558
-2.407577	 रो	-0.055558
-2.093413	ह क्कू	-0.055558
-1.888105	उ दि	-0.055558
-2.319399	ना कु	-0.055558
-0.211856	चे त	-0.231649
-2.397491	ं धि	-0.055558
-1.724278	दी क्	-0.055558
-1.529251	भ ज	-0.055558
-2.279312	ल ब	-0.055558
-2.081902	ला री	-0.055558
-0.749803	दी </s>
-1.728007	स् था	-0.055558
-1.823162	वी षा	-0.055558
-1.849217	इ द्	-0.055558
-0.653550	मा </s>
-1.446082	धु ल	-0.055558
-1.305201	त न	-0.231649
-1.949086	उ ष्	-0.055558
-2.052822	त् कि	-0.055558
-1.542503	का श	-0.356587
-1.530081	क मा	-0.180496
-2.121399	का ज	-0.055558
-1.402707	या म	-0.055558
-2.239589	द त्ता	-0.055558
-2.271356	ला ई	-0.055558
-1.235601	क् षी	-0.356587
-0.644628	द्द क	-0.055558
-1.391249	धि मा	-0.055558
-0.910796	शि ता	-0.356587
-2.238257	मा रु	-0.055558
-2.213452	ल क्	-0.055558
-2.086036	ता ली	-0.055558
-1.398519	ले ं	-0.055558
-1.736626	शा वी	-0.055558
-1.329602	जे श	-0.055558
-1.591934	के श्	-0.055558
-2.190540	ता हा	-0.055558
-0.746584	ते न्	-0.356587
-1.517154	मो दि	-0.055558
-1.689144	मु स्	-0.055558
-1.246688	षि के	-0.055558
-1.951379	इ ब्	-0.055558
-1.179844	बी या	-0.055558
-2.482573	र चि	-0.055558
-2.060146	स मि	-0.055558
-0.761763	नि का	-0.754528
-1.897161	दा मि	-0.055558
-1.653499	धु ब	-0.055558
-2.179973	द कि	-0.055558
-1.500816	रू हा	-0.055558
-1.086668	ए श्	-0.055558
-1.957439	श् य	-0.055558
-1.682052	प न	-0.055558
-1.516976	भ य	-0.055558
-1.783870	शी दा	-0.055558
-1.786715	कु सु	-0.055558
-2.190123	 च	-0.055558
-2.220790	स चि	-0.055558
-1.069056	णि का	-0.055558
-1.403527	तु र	-0.055558
-2.220790	स ल्	-0.055558
-2.076503	र न्	-0.055558
-1.827120	ली ल	-0.055558
-0.374588	ब </s>
-2.211555	र ज	-0.055558
-1.336869	त्त रा	-0.055558
-0.936038	ृ ति	-0.055558
-1.243691	यो म	-0.055558
-2.198756	व ग	-0.055558
-2.426722	व ल्ल	-0.055558
-2.211555	र ली	-0.055558
-2.003518	री नि	-0.055558
-0.501351	पि नी	-0.356587
-1.429452	सु मा	-0.055558
-1.253495	रु ण	-0.356587
-1.198024	बि न	-0.055558
-1.813667	हि ल्	-0.055558
-1.944793	न् का	-0.055558
-2.556767	ं को	-0.055558
-2.071042	न् दा	-0.055558
-1.652440	शि कि	-0.055558
-1.722673	दि व	-0.055558
-1.955011	ह जी	-0.055558
-1.849217	इ शि	-0.055558
-1.088920	चा र्	-0.055558
-2.147288	अ ने	-0.055558
-1.483667	ई नि	-0.055558
-1.954691	स र्	-0.055558
-1.757862	रु त्	-0.055558
-0.944266	च ना	-0.532679
-1.604444	रा री	-0.055558
-1.116904	चा रु	-0.055558
-1.644054	क ृ	-0.231649
-1.214596	ज् र	-0.055558
-1.244777	म न	-0.298596
-1.703954	वी न	-0.055558
-1.830073	ली ना	-0.055558
-1.757862	वा री	-0.055558
-0.657817	बू ब	-0.055558
-1.961051	दा मो	-0.055558
-0.828028	भ न	-0.356587
-1.458169	भि नी	-0.055558
-1.950795	दि ने	-0.055558
-1.763304	शी र्	-0.055558
-1.452506	ं </s>
-1.205656	गु रि	-0.055558
-2.203570	ं स	-0.055558
-0.815451	त्ति </s>
-1.736626	मु ख	-0.055558
-1.764841	सा त्	-0.055558
-2.357580	व ज्	-0.055558
-1.723859	ं क	-0.055558
-0.643007	ड़ि या	-0.055558
-1.472039	जि नी	-0.055558
-1.497095	ते जे	-0.055558
-1.778744	मु खी	-0.055558
-2.054464	ह ृ	-0.055558
-1.747655	ष द	-0.055558
-2.295101	त था	-0.055558
-1.600407	च र	-0.055558
-0.465506	ख </s>
-1.031860	झ म	-0.055558
-0.584095	म्मी </s>
-2.201033	र् थ	-0.055558
-1.994696	क न्	-0.055558
-1.680730	स् ती	-0.055558
-2.181959	म री	-0.055558
-1.778600	री ल	-0.055558
-2.059341	रि ध	-0.055558
-2.244947	य सु	-0.055558
-2.349196	ना ले	-0.055558
-2.373710	रा धा	-0.055558
-1.841454	रि क	-0.055558
-1.283615	वि र	-0.055558
-1.370373	रि य	-0.055558
-2.294579	म ति	-0.055558
-2.408610	र कु	-0.055558
-0.892964	ज्ज न	-0.055558
-2.019538	ल रा	-0.055558
-1.293777	त्त र	-0.055558
-1.872524	नि मि	-0.055558
-1.980356	रु धा	-0.055558
-1.626719	रे य	-0.055558
-1.806658	ं दि	-0.055558
-1.847881	र् श	-0.055558
-2.386512	र रे	-0.055558
-1.686156	नि नी	-0.055558
-0.660335	सो मे	-0.055558
-1.763288	ं दा	-0.055558
-1.412771	र ं	-0.201686
-1.478606	इ र	-0.055558
-1.686156	नि रा	-0.055558
-1.576724	मा व	-0.356587
-1.838154	रु शी	-0.055558
-2.066844	 नि	-0.055558
-1.301828	ने क	-0.055558
-1.705196	दी दा	-0.055558
-1.653069	ध न्	-0.055558
-1.306014	भा न	-0.055558
-1.313524	ही रा	-0.055558
-2.060414	उ ज्जा	-0.055558
-1.086668	पे श्	-0.055558
-1.013637	व र	-0.356587
-1.410943	म् ना	-0.055558
-2.290282	र प	-0.055558
-1.556913	ह र	-0.055558
-1.937040	ली शा	-0.055558
-0.584095	ठ </s>
-1.621655	इ श	-0.055558
-1.991008	य नी	-0.055558
-1.833072	चि त्ते	-0.055558
-1.698035	वा ला	-0.055558
-0.664565	फ़ि ज़ा	-0.055558
-0.991359	रे खा	-0.356587
-1.926826	ज री	-0.055558
-1.851812	सा वि	-0.055558
-1.432137	ं द्	-0.657618
-2.233082	न् नु	-0.055558
-2.497203	न ज्	-0.055558
-1.564956	चि ं	-0.055558
-1.840782	हा दे	-0.055558
-0.932070	ल्ल री	-0.055558
-1.412725	ष् मा	-0.055558
-2.023620	री शी	-0.055558
-1.323735	बा ल	-0.055558
-0.644628	लु क	-0.055558
-1.185449	गि नी	-0.055558
-2.159382	रि ओ	-0.055558
-1.894432	द रा	-0.055558
-1.988495	 रि	-0.055558
-2.478569	न रो	-0.055558
-1.116904	तो ष	-0.055558
-1.772362	ती मि	-0.055558
-2.076401	श री	-0.055558
-2.285380	 ध	-0.055558
-1.757653	 मा	-0.055558
-2.075977	अ भ	-0.055558
-0.924271	फ क	-0.055558
-2.654190	 ग़ौ	-0.055558
-1.039855	झ ल	-0.055558
-1.555653	र का	-0.055558
-1.058400	सू मा	-0.055558
-0.584095	तू </s>
-1.546137	नु म	-0.055558
-1.893699	त ल	-0.055558
-1.566986	क द	-0.055558
-2.251253	 जी	-0.055558
-2.126974	र् मे	-0.055558
-1.051336	प ति	-0.532679
-0.964259	द् य	-0.055558
-0.666268	टि म्मी	-0.055558
-1.844799	व म	-0.055558
-2.578236	 धी	-0.055558
-2.362914	 चि	-0.055558
-1.965324	दि व्	-0.055558
-0.961365	कै शो	-0.055558
-2.415726	ना थी	-0.055558
-2.317117	स ज्ज	-0.055558
-1.979054	मि शि	-0.055558
-2.411129	न जी	-0.055558
-1.707693	ती श	-0.055558
-1.946091	ता नी	-0.055558
-0.918131	गी श	-0.055558
-1.557824	त ला	-0.055558
-2.044698	री प्	-0.055558
-1.892419	 व	-0.055558
-1.864018	सा ग	-0.055558
-1.391249	ई मा	-0.055558
-1.234676	ध् वा	-0.055558
-0.935229	यू रि	-0.055558
-2.011224	वि पा	-0.055558
-1.298834	ज ल	-0.055558
-1.829832	प द	-0.055558
-2.029535	व क	-0.055558
-2.009739	सा खी	-0.055558
-1.776587	वा ज	-0.055558
-1.734061	उ श्	-0.055558
-2.293773	ल लि	-0.055558
-1.613823	लि मा	-0.055558
-1.768316	 नी	-0.055558
-1.872554	वा च	-0.055558
-1.985699	ह नु	-0.055558
-2.107385	स स्	-0.055558
-2.578236	 मै	-0.055558
-0.584095	षु </s>
-1.158813	न् य	-0.356587
-0.885832	हू र	-0.055558
-1.652440	ृ ष्	-0.055558
-1.779641	वि ता	-0.055558
-0.584095	दू </s>
-1.384386	व र्	-0.055558
-2.434083	ना भि	-0.055558
-1.930316	श् क	-0.055558
-0.828733	ला ल	-0.481526
-1.238123	स न	-0.231649
-1.755949	इ क्	-0.055558
-1.837527	र वि	-0.055558
-1.401667	के </s>
-1.542503	का न्	-0.055558
-1.751100	दी प्	-0.055558
-1.689978	आ श्	-0.055558
-2.349196	ना दु	-0.055558
-0.584095	लू </s>
-1.816647	रु नि	-0.055558
-2.373710	रा गि	-0.055558
-1.307256	जे ं	-0.055558
-0.570383	श् री	-0.328559
-1.641631	चि द	-0.055558
-2.141026	रि गू	-0.055558
-1.116904	णि पा	-0.055558
-1.833908	द ना	-0.055558
-1.216124	लो त्	-0.055558
-1.746730	वि रा	-0.055558
-1.943883	वि क्	-0.055558
-1.660796	उ ता	-0.055558
-1.777069	ज ना	-0.055558
-0.637381	थु रा	-0.055558
-1.723823	नि श	-0.055558
-0.163590	श </s>
-2.220790	स मु	-0.055558
-2.392399	ल व्	-0.055558
-1.746779	मु मु	-0.055558
-2.002614	मि था	-0.055558
-0.636583	घि मा	-0.055558
-1.392951	रू का	-0.055558
-1.999152	न र	-0.055558
-1.641972	पा मा	-0.055558
-1.577746	इ मा	-0.055558
-2.006797	 दा	-0.055558
-2.322344	मा ही	-0.055558
-2.578236	 यू	-0.055558
-1.451957	न् म	-0.231649
-1.754665	र ला	-0.356587
-1.791840	नि र्	-0.055558
-1.961080	अ वि	-0.055558
-1.860782	रु स्	-0.055558
-1.129471	हा स	-0.055558
-1.545289	यु म्	-0.055558
-1.933019	उ द्	-0.055558
-2.062631	ज दु	-0.055558
-1.872554	रु पा	-0.055558
-1.402144	रू त	-0.055558
-1.624129	धु प	-0.055558
-0.972504	क् षि	-0.532679
-0.927374	म्म द	-0.055558
-1.561391	सु शी	-0.055558
-1.720815	र नी	-0.055558
-1.623270	आ का	-0.055558
-0.584095	णी </s>
-1.604555	चि न्	-0.055558
-1.595435	ग ना	-0.055558
-2.167309	वि पु	-0.055558
-1.160778	ट रा	-0.055558
-2.039763	उ ज्ज	-0.055558
-0.208869	ओ म	-0.055558
-1.802620	दा न्	-0.055558
-1.936736	दि था	-0.055558
-1.978495	या ना	-0.055558
-1.737770	र् ना	-0.055558
-1.525353	इ ना	-0.055558
-1.157334	बा </s>
-1.889057	रि त्	-0.055558
-1.807962	च रि	-0.055558
-1.489517	ला श	-0.231649
-1.746969	ध वी	-0.055558
-1.424180	धि या	-0.055558
-1.176685	धि </s>
-1.694744	ध र्	-0.055558
-2.124346	स हा	-0.055558
-1.488915	ले ख	-0.055558
-0.647888	ण् य	-0.055558
-1.984483	प ण	-0.055558
-1.977339	त् वी	-0.055558
-2.373710	रा से	-0.055558
-1.576959	म दे	-0.532679
-2.213494	क पा	-0.055558
-1.530292	म य	-0.231649
-1.554739	सु प	-0.055558
-0.545792	व् या	-0.055558
-2.383437	म दी	-0.055558
-1.478099	रू प	-0.055558
-1.938696	श ल	-0.055558
-2.041384	वि कु	-0.055558
-1.460197	सु न्	-0.055558
-1.192256	गो म	-0.055558
-1.896644	वि ज	-0.055558
-1.972676	च ँ	-0.055558
-1.343773	रि ता	-0.356587
-1.472039	वे ता	-0.055558
-0.921190	भ् या	-0.055558
-1.384241	लि </s>
-0.921190	कै ला	-0.055558
-1.906616	म र	-0.055558
-0.297066	शी </s>
-0.664565	शे ज़ा	-0.055558
-1.225598	मि ल	-0.356587
-1.198331	षि त	-0.055558
-0.559725	रे श	-0.657618
-1.025959	धा र	-0.055558
-2.375818	ं हि	-0.055558
-1.851190	हि म्म	-0.055558
-2.167348	त प	-0.055558
-0.944847	ज्ज वा	-0.055558
-1.674101	रा ध्	-0.055558
-2.001897	ह मी	-0.055558
-0.505309	लो क	-0.055558
-2.243409	र् णि	-0.055558
-1.326904	रि ं	-0.356587
-1.984483	प शि	-0.055558
-1.353452	सि यो	-0.055558
-1.335160	व ल	-0.180496
-1.916593	सा हि	-0.055558
-2.366640	न स्	-0.055558
-1.301078	गा म	-0.055558
-1.330010	ज् हा	-0.055558
-1.654952	 न	-0.055557
-1.502079	बा बु	-0.055558
-1.556250	वा म	-0.055558
-1.700047	शि ल्ला	-0.055558
-1.598672	चि ता	-0.055558
-1.878286	 क	-0.055558
-2.232655	अ भि	-0.055558
-1.872554	दि ब	-0.055558
-1.504810	र् ण	-0.356587
-1.361838	सि द्द	-0.055558
-1.553372	रा ं	-0.055558
-0.542113	वी र	-0.754528
-1.255712	बी बा	-0.055558
-1.736248	सा द	-0.055558
-1.744153	उ र्	-0.055558
-2.015733	य ता	-0.055558
-1.475820	शि नी	-0.055558
-1.752880	प नी	-0.055558
-1.166816	सी ना	-0.055558
-2.107385	स ह	-0.055558
-1.620023	ब ं	-0.055558
-1.264783	ला व	-0.055558
-1.355472	त् प	-0.180496
-2.190123	 रु	-0.055558
-1.030498	चि रा	-0.055558
-1.928679	ना र	-0.055558
-0.648706	् त्	-0.055558
-1.592634	म णि	-0.231649
-1.265776	गु ड़ि	-0.055558
-2.086036	ता ज	-0.055558
-1.546337	धु क	-0.055558
-2.292469	मा रू	-0.055558
-1.870309	अ रि	-0.055558
-2.654190	 शै	-0.055558
-2.407577	 ते	-0.055558
-1.679573	दे ही	-0.055558
-2.158106	न् ती	-0.055558
-1.565112	ष् णा	-0.055558
-0.965083	क् ष	-0.055558
-2.115391	द प्	-0.055558
-1.961080	अ ति	-0.055558
-1.557572	व् ये	-0.055558
-0.524000	जी त	-0.657618
-1.112010	शी ला	-0.356587
-0.210150	ण </s>
-2.278904	त नु	-0.055558
-1.169293	ग रा	-0.356587
-2.322419	 दे	-0.055558
-1.868263	त म	-0.055558
-0.507368	यु </s>
-0.630253	टी ना	-0.055558
-1.818212	ं दी	-0.055558
-1.751100	दी ती	-0.055558
-1.378138	श् मि	-0.055558
-1.587593	न् दु	-0.055558
-1.957439	श् र्	-0.055558
-1.876658	री श	-0.055558
-2.073796	वि दु	-0.055558
-2.147635	क नि	-0.055558
-1.772971	मि न्	-0.055558
-0.798025	ष् य	-0.055558
-1.476978	वे न्	-0.055558
-1.966555	स री	-0.055558
-1.107550	पा श्	-0.356587
-1.326660	 </s>
-0.398559	भा </s>
-0.951379	को लि	-0.055558
-0.471327	घ </s>
-1.823784	रि ला	-0.055558
-1.579925	रु ल	-0.055558
-2.297105	ला घि	-0.055558
-2.001192	उ ज्	-0.055558
-0.584095	पी </s>
-0.919658	म्म त	-0.055558
-0.867130	पा ली	-0.532679
-0.538052	द </s>
-2.395788	न रे	-0.055558
-2.262308	व कु	-0.055558
-1.801441	मु फी	-0.055558
-1.117686	बी र	-0.055558
-1.395231	धि रा	-0.055558
-0.944847	जो वा	-0.055558
-1.130160	नु ज	-0.356587
-2.291159	क ल्	-0.055558
-1.639596	र ण	-0.180496
-1.869386	रि श्	-0.055558
-2.035247	र् वी	-0.055558
-2.031539	श ला	-0.055558
-1.189587	दि ता	-0.356587
-1.581823	अ म	-0.055558
-2.291517	ना दि	-0.055558
-2.424785	म ले	-0.055558
-1.684291	रि न	-0.055558
-2.021680	र् मि	-0.055558
-1.685893	पा ला	-0.055558
-2.263570	म क्	-0.055558
-1.425222	रो त्त	-0.055558
-2.362914	 मु	-0.055558
-1.678774	मे हु	-0.055558
-1.259041	ँ पि	-0.055558
-1.782732	नि श्	-0.055558
-1.561883	ता नि	-0.055558
-2.460702	न मो	-0.055558
-1.552392	स् का	-0.055558
-1.026564	मि का	-0.532679
-2.268168	रा जी	-0.055558
-1.925203	मि शा	-0.055558
-0.781854	भ </s>
-1.874822	वि त्	-0.055558
-2.002614	मि सा	-0.055558
-1.878943	आ दे	-0.055558
-2.012077	वा गी	-0.055558
-2.525828	ं गू	-0.055558
-1.777456	इ शी	-0.055558
-0.637381	जै रा	-0.055558
-0.584095	यी </s>
-1.091185	गू री	-0.055558
-1.633456	हा का	-0.055558
-1.723823	नि न्	-0.055558
-1.729126	ह ला	-0.055558
-1.034974	वा </s>
-0.968373	वि न	-0.134739
-0.626344	स्सु म	-0.055558
-0.584095	षी </s>
-1.679832	रे ह	-0.055558
-2.411129	न दी	-0.055558
-1.239454	द य	-0.231649
-1.513887	मु नी	-0.055558
-1.602784	शि वा	-0.055558
-1.370086	षा का	-0.055558
-1.427633	धु म	-0.055558
-1.802521	आ शा	-0.055558
-1.985185	ता न्	-0.055558
-1.493588	धि ति	-0.055558
-1.185449	घ रा	-0.055558
-1.901140	ग ध	-0.055558
-1.703581	पा व	-0.055558
-1.681057	आ द	-0.055558
-2.225699	मा प्	-0.055558
-2.571772	र से	-0.055558
-1.965769	उ षा	-0.055558
-2.088858	 मि	-0.055558
-1.658891	स् प	-0.055558
-2.344951	स फि	-0.055558
-2.513608	 हे	-0.055558
-1.656930	ति र	-0.055558
-1.775965	ब स्सु	-0.055558
-1.129922	से न	-0.055558
-2.654190	 जै	-0.055558
-1.175163	न य	-0.356587
-1.446106	ई श्	-0.055558
-1.636288	दी श	-0.055558
-1.565248	ं ति	-0.180496
-2.018854	त् रे	-0.055558
-1.701136	त् र	-0.055558
-2.065871	ता त्	-0.055558
-1.134915	जु ल	-0.055558
-1.069056	ए का	-0.055558
-2.654190	 तौ	-0.055558
-1.801143	नि त्	-0.055558
-2.340292	ल कि	-0.055558
-1.286005	जे ना	-0.055558
-1.157334	कि </s>
-1.267116	गो व	-0.055558
-0.295714	ल </s>
-1.030418	मि ला	-0.532679
-0.626344	खे म	-0.055558
-1.726706	कु वि	-0.055558
-2.078694	र् दि	-0.055558
-1.265189	प ला	-0.055558
-2.654190	 छ	-0.055558
-2.261703	ता मी	-0.055558
-0.584095	डी </s>
-2.088913	नी ला	-0.055558
-1.930795	सा धि	-0.055558
-2.066077	र ता	-0.055558
-1.407832	कि र्	-0.055558
-1.913301	ग दे	-0.055558
-1.557101	वै कु	-0.055558
-0.930540	ज न	-0.356587
-2.266288	स लो	-0.055558
-1.116317	स ना	-0.657618
-1.961080	अ वा	-0.055558
-2.118927	श क्	-0.055558
-0.640587	चै ता	-0.055558
-0.345895	ने श	-0.532679
-1.858352	दु बा	-0.055558
-2.431892	र भ	-0.055558
-1.532007	द् रा	-0.055558
-1.222988	सी दा	-0.055558
-1.669306	उ न्	-0.055558
-1.401418	स र	-0.055558
-1.868698	ज त	-0.055558
-1.252135	ना रा	-0.356587
-1.020455	ं द	-0.386551
-0.518967	र </s>
-1.577995	ग न	-0.055558
-2.385803	क पो	-0.055558
-1.962711	म ना	-0.055558
-1.790646	हा स्	-0.055558
-2.457365	 तु	-0.055558
-1.395231	ई नी	-0.055558
-2.259019	का मे	-0.055558
-1.708389	आ त्	-0.055558
-1.603596	तु लि	-0.055558
-1.507542	मा र	-0.055558
-1.861489	पा सी	-0.055558
-0.554965	रा </s>
-1.552219	ृ त्	-0.055558
-1.862421	इ ष्	-0.055558
-2.203871	ता रे	-0.055558
-1.500411	हु आ	-0.055558
-2.457365	 हु	-0.055558
-1.518628	हि र	-0.055558
-2.219613	 रे	-0.055558
-1.772107	नु प	-0.055558
-1.619400	नि ल	-0.055558
-1.485358	आ र	-0.055558
-1.707057	म न्	-0.055558
-0.895850	शै ल	-0.055558
-2.238610	ल वी	-0.055558
-2.207496	म ली	-0.055558
-2.357580	व सु	-0.055558
-1.775919	उ रि	-0.055558
-2.239589	द ये	-0.055558
-1.896790	ज व	-0.055558
-1.740359	रे णु	-0.055558
-2.201523	न् दी	-0.055558
-1.381403	ध </s>
-1.031860	थि म	-0.055558
-1.996894	वि प्	-0.055558
-1.745222	त् ना	-0.055558
-1.635228	चि व	-0.055558
-1.717006	मु के	-0.055558
-1.818212	ं जी	-0.055558
-0.931516	णि </s>
-2.045477	स क्	-0.055558
-1.578080	दु ल	-0.055558
-1.562420	न् वी	-0.356587
-1.488927	का र	-0.356587
-1.532855	तु र्	-0.055558
-2.316931	व था	-0.055558
-1.609539	ृ ग	-0.055558
-2.183476	री क़	-0.055558
-1.732147	मि मा	-0.055558
-0.910577	यू रा	-0.055558
-1.136615	भी ध्	-0.055558
-2.242943	स बि	-0.055558
-2.426722	व ण्	-0.055558
-1.071218	पे न्	-0.055558
-1.917431	च मे	-0.055558
-1.680641	 ना	-0.055558
-1.041877	गू ना	-0.055558
-0.981987	स् त	-0.055558
-0.884981	सा </s>
-1.400620	ल् हा	-0.055558
-1.587309	ता भ	-0.356587
-1.889311	ग जी	-0.055558
-0.584095	ची </s>
-1.748794	वा र्	-0.055558
-1.291624	गो दा	-0.055558
-2.290959	स खी	-0.055558
-1.789883	ं शी	-0.055558
-1.552603	स वी	-0.356587
-1.521664	ला क्	-0.055558
-1.837527	र वा	-0.055558
-2.131400	न् ति	-0.055558
-1.084427	नो द	-0.055558
-1.813794	 ता	-0.055557
-2.291159	क चि	-0.055558
-1.331132	व न	-0.231649
-2.060513	ल श	-0.055558
-2.232655	अ मू	-0.055558
-2.383437	म के	-0.055558
-1.979929	श ं	-0.055558
-1.111320	ज़ा ली	-0.055558
-2.516672	न ट	-0.055558
-2.392399	ल सी	-0.055558
-2.220316	का रु	-0.055558
-0.928933	गी श्	-0.055558
-2.339326	न वी	-0.055558
-0.499961	क </s>
-1.944572	अ मि	-0.055558
-1.024896	शा नी	-0.356587
-2.252786	ना वि	-0.055558
-0.653652	ज्जा नि	-0.055558
-1.685742	ण दा	-0.055558
-2.578236	 चा	-0.055558
-1.465719	न् ना	-0.055558
-1.951379	इ ज़	-0.055558
-1.188279	ँ व	-0.055558
-1.577076	धु री	-0.055558
-1.122497	नी षा	-0.657618
-1.674719	रु ता	-0.055558
-2.001192	उ त्त	-0.055558
-1.422615	ं ती	-0.657618
-1.988495	 ज	-0.055558
-1.549345	म् बि	-0.055558
-2.183669	र त्	-0.055558
-2.159382	रि पु	-0.055558
-2.556767	ं गे	-0.055558
-2.098485	ना या	-0.055558
-1.815473	द न	-0.055558
-1.570582	वै ष्	-0.055558
-2.362914	 था	-0.055558
-2.146926	वि त्ता	-0.055558
-1.664876	शी ना	-0.055558
-1.890610	दा क्	-0.055558
-0.440695	प् र	-0.152468
-1.174311	कौ श	-0.055558
-1.036960	हि म	-0.055558
-1.454964	द या	-0.055558
-2.470487	म ही	-0.055558
-2.009739	सा ँ	-0.055558
-1.873900	हा भा	-0.055558
-0.326509	री </s>
-1.799780	कु सू	-0.055558
-1.859526	मि रि	-0.055558
-1.611838	स् त्	-0.055558
-2.200611	श मी	-0.055558
-1.990615	रि ग	-0.055558
-2.482573	र सा	-0.055558
-0.655313	छ वि	-0.055558
-1.616340	वे नु	-0.055558
-1.890097	इ ही	-0.055558
-2.014740	अ दि	-0.055558
-1.332890	ही त	-0.055558
-2.107385	स ती	-0.055558
-1.736728	ति मा	-0.055558
-2.356976	ल वे	-0.055558
-1.820369	नि रि	-0.055558
-0.383178	ये श	-0.356587
-1.498534	नी का	-0.356587
-1.179844	जु ला	-0.055558
-0.644727	के त	-0.231649
-2.304046	न् हे	-0.055558
-2.313629	न क्	-0.055558
-1.410208	<s> इ	-0.377777
-1.674009	दे वे	-0.055558
-2.179823	त वी	-0.055558
-0.895850	पु ल	-0.055558
-1.492789	र् ष	-0.231649
-1.602784	दे ली	-0.055558
-0.656146	ख़ु शा	-0.055558
-1.430952	ष् का	-0.055558
-1.356632	ल् य	-0.055558
-2.226200	र दा	-0.055558
-1.504324	क ल	-0.055558
-2.229370	व रु	-0.055558
-1.040774	शा ली	-0.055558
-1.030498	ध न	-0.055558
-1.984621	च को	-0.055558
-1.192256	हे म	-0.055558
-1.645061	सा नी	-0.055558
-1.978241	अ ग	-0.055558
-1.213859	ध् य	-0.055558
-2.007791	ला का	-0.055558
-1.915191	मि शी	-0.055558
-1.535706	मी कि	-0.055558
-1.894432	द नी	-0.055558
-1.213048	र् या	-0.532679
-1.647757	नु का	-0.055558
-1.580811	ता लि	-0.231649
-1.636053	रा ग	-0.356587
-1.156780	वि </s>
-2.059508	श् रे	-0.055558
-1.909915	रु द्	-0.055558
-2.521571	म हे	-0.055558
-1.411207	हु स	-0.055558
-2.272727	का रू	-0.055558
-1.763126	हा मि	-0.055558
-2.073502	ह म्म	-0.055558
-1.904835	प नि	-0.055558
-1.982162	व ता	-0.055558
-2.030496	न न	-0.055558
-1.814788	प क	-0.055558
-1.369479	सु म	-0.055558
-0.936817	मौ स	-0.055558
-1.621655	इ न्	-0.055558
-2.074841	का द	-0.055558
-0.619209	ही </s>
-2.415726	ना थि	-0.055558
-1.069056	थि का	-0.055558
-2.571772	र थी	-0.055558
-1.666050	स् वि	-0.055558
-1.864593	क् शा	-0.055558
-1.728596	ं व	-0.055558
-2.047590	नि धी	-0.055558
-1.343809	त् रि	-0.055558
-1.650059	द् वि	-0.055558
-0.971447	का ं	-0.231649
-1.878632	ं र	-0.055558
-0.892964	ल्ली न	-0.055558
-1.210692	ह न	-0.356587
-1.326989	षा र	-0.055558
-1.697164	इ त्	-0.055558
-2.549559	म यू	-0.055558
-1.889311	ग दी	-0.055558
-1.697271	हा र्	-0.055558
-1.081398	य ना	-0.180496
-2.112047	 वा	-0.055558
-1.286306	ह री	-0.055558
-2.212963	ला ध	-0.055558
-1.313524	यो त	-0.055558
-2.046601	ता श्	-0.055558
-1.290623	स व	-0.231649
-1.684999	धु ले	-0.055558
-1.552219	भि ज	-0.055558
-0.239220	थ </s>
-0.935229	भु ज	-0.055558
-0.361211	की </s>
-0.772766	मी र	-0.356587
-2.242915	क हि	-0.055558
-0.776792	कु मा	-0.532679
-1.848224	क् मि	-0.055558
-1.522926	जि द	-0.055558
-2.513608	 से	-0.055558
-2.654190	 थु	-0.055558
-0.730702	मी </s>
-1.059199	क र	-0.356587
-1.351177	बा ं	-0.055558
-2.025474	श् वि	-0.055558
-1.849874	र ह	-0.055558
-1.060498	ल ता	-0.833709
-2.365485	र च	-0.055558
-1.618456	अ ना	-0.055558
-1.325500	प त्ति	-0.356587
-2.136497	मा ली	-0.055558
-1.295039	न् या	-0.532679
-0.398559	था </s>
-1.463395	जि ं	-0.055558
-2.172793	क वी	-0.055558
-2.227956	क लि	-0.055558
-1.980356	वा थि	-0.055558
-2.232655	अ भी	-0.055558
-1.555087	ष् ट	-0.055558
-1.345044	वि का	-0.055558
-2.170369	र य	-0.055558
-2.052003	ल का	-0.055558
-2.188696	वि क्की	-0.055558
-1.436216	भ ना	-0.055558
-2.319399	ना के	-0.055558
-1.193994	फा न	-0.055558
-1.180295	म रा	-0.356587
-1.496312	ृ ता	-0.055558
-0.584095	क्की </s>
-2.156536	व नि	-0.055558
-1.680702	वि ना	-0.055558
-1.966555	स त्	-0.055558
-0.398559	गा </s>
-1.959556	र् ज	-0.055558
-0.647070	ऐ श्	-0.055558
-2.654190	 छा	-0.055558
-1.557926	व नी	-0.055558
-1.129119	मू ल्	-0.055558
-1.815670	स मा	-0.055558
-2.054464	ह ँ	-0.055558
-2.294579	म वी	-0.055558
-2.147288	अ जि	-0.055558
-2.118059	व दा	-0.055558
-1.656325	ह ं	-0.055558
-2.107385	स प्	-0.055558
-2.265316	ल ती	-0.055558
-1.117686	गु र	-0.055558
-2.495279	म सी	-0.055558
-2.285380	 द्	-0.055558
-2.243409	र् चा	-0.055558
-1.180555	ग न्	-0.055558
-2.453250	ना ज़	-0.055558
-1.187759	मा ं	-0.134739
-2.510319	र बि	-0.055558
-0.845178	धु </s>
-1.977339	त् वा	-0.055558
-1.739911	वा श्	-0.055558
-2.109842	त रि	-0.055558
-1.041877	त्ता ना	-0.055558
-2.036225	ह बी	-0.055558
-1.545570	दी म	-0.055558
-1.468282	य रा	-0.356587
-1.788623	इ शा	-0.055558
-2.071042	न् स	-0.055558
-1.073392	भी त	-0.055558
-1.976421	सा जि	-0.055558
-0.307060	वी </s>
-2.031860	ज लि	-0.055558
-1.626344	सु बि	-0.055558
-0.811658	ध व	-0.180496
-1.591102	रा व	-0.055558
-1.888105	उ पा	-0.055558
-1.705410	ं श	-0.356587
-2.578236	 झ	-0.055558
-1.872554	दि पा	-0.055558
-1.496837	भि ला	-0.055558
-1.596108	अ न	-0.055558
-1.635755	र जी	-0.532679
-2.513608	 सि	-0.055558
-2.035247	य या	-0.055558
-1.361158	न न्	-0.055558
-1.280107	ं त	-0.231649
-0.844302	रा ज	-0.435769
-1.208621	थ ं	-0.055558
-2.232655	अ भ्	-0.055558
-2.513608	 ट	-0.055558
-2.278904	त रू	-0.055558
-0.703763	दु ला	-0.180496
-0.643007	छा या	-0.055558
-1.920430	का ल	-0.055558
-2.098137	र या	-0.055558
-1.141686	त्ता ्	-0.055558
-2.513608	 गू	-0.055558
-1.667736	शि रो	-0.055558
-1.083812	क ला	-0.210459
-1.579925	दि ल	-0.055558
-1.623031	नु रा	-0.055558
-2.268168	रा हि	-0.055558
-1.920343	रि स	-0.055558
-2.317741	रा यु	-0.055558
-1.919286	नि रु	-0.055558
-1.380471	कि त	-0.055558
-0.807667	मो ह	-0.055558
-1.438463	यु त	-0.055558
-2.122194	अ मो	-0.055558
-2.106242	न् नि	-0.055558
-1.631891	दे वा	-0.055558
-1.039855	मू ल	-0.055558
-1.562060	र त	-0.532679
-1.061923	की र	-0.055558
-2.006797	 स	-0.055557
-2.457365	 बा	-0.055558
-0.201031	ष </s>
-2.510319	र जि	-0.055558
-0.734862	बा ला	-0.356587
-0.797014	म् या	-0.356587
-1.242647	शो भ	-0.055558
-1.233865	रु प	-0.055558
-1.351189	<s> उ	-0.321825
-2.112047	 वि	-0.055558
-1.149263	न् त	-0.657618
-0.815451	ल्ली </s>
-1.954308	ल ना	-0.055558
-2.121399	का ली	-0.055558
-1.563789	वै द्	-0.055558
-0.885832	फ र	-0.055558
-1.158534	वा ना	-0.055558
-1.814462	ति श्	-0.055558
-1.321439	बि हा	-0.055558
-0.723908	प् रि	-0.231649
-2.364151	म रे	-0.055558
-1.073339	हा न	-0.356587
-1.443593	र द	-0.356587
-1.731166	वि ं	-0.055558
-2.063723	र् ती	-0.055558
-1.500411	हु मै	-0.055558
-2.225849	ल मि	-0.055558
-2.173922	अ शो	-0.055558
-1.870309	अ ली	-0.055558
-1.838154	दि वा	-0.055558
-2.162509	 ती	-0.055558
-1.428500	भा गा	-0.055558
-1.807379	नु पा	-0.055558
-2.078367	री कु	-0.055558
-1.418738	भा द्	-0.055558
-0.648706	ग़ौ री	-0.055558
-2.102173	का त्	-0.055558
-2.205903	त ह	-0.055558
-2.354426	मा धु	-0.055558
-2.265296	अ च्	-0.055558
-2.278219	ना ह	-0.055558
-2.348620	का जो	-0.055558
-1.199786	शो री	-0.055558
-0.106267	ली </s>
-1.615250	 र	-0.055558
-1.573454	क र्	-0.055558
-1.943074	ति रू	-0.055558
-1.916593	सा के	-0.055558
-1.558718	वे नि	-0.055558
-1.717006	मु दी	-0.055558
-1.119320	धी रे	-0.055558
-0.206730	नी </s>
-0.935229	मौ ली	-0.055558
-1.838454	 त	-0.055558
-1.090387	रो </s>
-1.551822	त न्	-0.055558
-1.518371	मे न्	-0.055558
-1.398971	भि न	-0.055558
-0.332597	ते श	-0.657618
-2.217623	ता हि	-0.055558
-1.576345	त र्	-0.055558
-1.019913	लि नी	-0.356587
-1.499054	जि त	-0.055558
-1.503741	यु शी	-0.055558
-1.406041	ल क	-0.231649
-1.589454	म ृ	-0.055558
-0.931516	चा </s>
-0.862913	तु ल	-0.055558
-1.690054	ति ल	-0.055558
-2.073502	ह मू	-0.055558
-2.086036	ता रि	-0.055558
-0.758631	ले खा	-0.356587
-1.361838	गो रॉ	-0.055558
-2.251253	 के	-0.055558
-0.952061	च ं	-0.231649
-1.617057	क् र	-0.055558
-1.722980	ती क	-0.055558
-2.457365	 व्	-0.055558
-0.846584	भ व	-0.356587
-1.682353	वा न्	-0.055558
-1.865349	दा ली	-0.055558
-0.584095	ल्ला </s>
-2.345686	म च	-0.055558
-1.055138	ष म	-0.356587
-2.167309	वि भी	-0.055558
-1.936736	रु चि	-0.055558
-3.677303	<s> ओ	-0.055558
-1.851330	 ला	-0.055558
-1.821274	ली न	-0.055558
-1.344938	यो त्	-0.055558
-1.627903	तु षा	-0.055558
-0.985106	दु </s>
-2.497203	न हु	-0.055558
-1.787479	मि या	-0.055558
-0.655313	भू ति	-0.055558
-0.471327	शु </s>
-1.617064	नु मा	-0.055558
-1.490752	त र	-0.152468
-0.669813	नु </s>
-2.131400	न् शी	-0.055558
-2.326581	क बी	-0.055558
-1.601676	हा मा	-0.055558
-1.624782	मे ह	-0.055558
-2.271356	ला पि	-0.055558
-1.978366	क् षु	-0.055558
-1.829697	ज रा	-0.055558
-2.251253	 दी	-0.055558
-2.064762	त् वे	-0.055558
-0.408699	दे व	-0.298596
-1.652440	शि ष्	-0.055558
-1.827365	न् न	-0.055558
-1.787045	उ स	-0.055558
-1.208621	कौ स	-0.055558
-1.116904	नो ब	-0.055558
-1.938355	क ं	-0.055558
-1.985040	य मा	-0.055558
-1.556250	रु म	-0.055558
-1.980356	रु पे	-0.055558
-1.039855	बु ल	-0.055558
-0.504427	ध् या	-0.356587
-1.091185	मै त्	-0.055558
-1.711861	ह न्	-0.055558
-2.248470	ं क्	-0.055558
-1.770907	हि ब	-0.055558
-1.738825	ती र्	-0.055558
-1.877519	दु मौ	-0.055558
-1.825949	 श	-0.055558
-1.035839	पे न	-0.055558
-2.182999	श शि	-0.055558
-1.941545	र ल	-0.055558
-0.641392	त्ते श	-0.055558
-1.015259	शा ल	-0.055558
-1.928971	श न	-0.055558
-1.816647	रु क्	-0.055558
-2.264508	नी लो	-0.055558
-1.541093	वे दा	-0.055558
-1.064353	हा र	-0.055558
-1.723809	द् गि	-0.055558
-2.335470	ं च	-0.055558
-1.969580	वि शी	-0.055558
-2.469868	ं बि	-0.055558
-1.225313	य न	-0.532679
-2.335608	रा म्	-0.055558
-1.063289	दु म	-0.055558
-2.108624	न मा	-0.055558
-0.959685	भ् रो	-0.055558
-1.406055	यो मे	-0.055558
-2.654190	 चै	-0.055558
-2.654190	 ख़ु	-0.055558
-1.511702	न क	-0.231649
-1.333169	हे मे	-0.055558
-1.518670	रू ण	-0.055558
-1.813794	 का	-0.055558
-2.285380	 धि	-0.055558
-1.757862	दि त्	-0.055558
-0.627903	र्रा न	-0.055558
-2.654190	 शे	-0.055558
-1.753727	स् तो	-0.055558
-0.940600	स </s>
-2.606101	र भु	-0.055558
-2.131341	का स	-0.055558
-2.171315	ला प्	-0.055558
-2.060414	उ ल्लु	-0.055558
-2.525828	ं सि	-0.055558
-1.585982	ब न	-0.055558
-2.157465	र श्	-0.055558
-1.301068	कि र	-0.055558
-1.971697	नि ले	-0.055558
-1.164135	च ल	-0.356587
-2.362914	 मो	-0.055558
-1.793157	प त	-0.055558
-1.714304	वा क	-0.055558
-1.452916	भि मा	-0.055558
-0.931516	धा </s>
-0.640587	ल्लि का	-0.055558
-1.507853	वे द	-0.055558
-1.944793	न् ता	-0.055558
-2.654190	 वै	-0.055558
-1.430952	मी ता	-0.055558
-0.925201	मे श्	-0.055558
-1.831170	अ य	-0.055558
-1.561830	म ती	-0.532679
-1.489616	वै ज	-0.055558
-1.193994	पि ता	-0.055558
-2.162509	 स्	-0.055558
-0.755264	मा न	-0.578436
-1.402941	था ग	-0.055558
-1.838113	ती र्रा	-0.055558
-1.885439	ति ति	-0.055558
-1.589544	ग ल	-0.055558
-1.860782	दि प्	-0.055558
-2.190123	 ब	-0.055558
-1.928669	अ नि	-0.055558
-1.912328	न् नी	-0.055558
-1.826532	आ रु	-0.055558
-1.965769	उ जे	-0.055558
-1.031860	सू म	-0.055558
-1.481092	र् वा	-0.356587
-1.795269	अ व	-0.055558
-2.162427	र् जे	-0.055558
-0.366057	ला </s>
-0.644628	शौ क	-0.055558
-1.129922	जु न	-0.055558
-2.513608	 गि	-0.055558
-1.384276	कि ला	-0.055558
-1.224965	च प	-0.055558
-2.133314	ला नि	-0.055558
-2.238008	रा च	-0.055558
-1.506932	ृ त	-0.055558
-1.216713	मु </s>
-1.855305	ज ता	-0.055558
-2.011224	वि च	-0.055558
-1.243120	र् प	-0.180496
-1.631175	भि जी	-0.055558
-2.654190	 टी	-0.055558
-1.950800	ज दा	-0.055558
-2.426722	व ल्लि	-0.055558
-2.266288	स बी	-0.055558
-1.636781	पा ं	-0.055558
-1.849321	दि शा	-0.055558
-1.591312	न् यु	-0.356587
-1.694999	ग त	-0.055558
-1.913301	ग नु	-0.055558
-2.513608	 तो	-0.055558
-1.089237	द र्	-0.277406
-1.922144	 श्	-0.055558
-2.265316	ना ग	-0.055558
-2.081506	ना श	-0.055558
-1.513998	चि न	-0.055558
-1.137433	बी ना	-0.055558
-1.424406	ही रो	-0.055558
-1.185449	शो क	-0.055558
-1.699549	लि दा	-0.055558
-0.931516	झ </s>
-0.839761	ना थ	-1.055557
-1.816637	ह रि	-0.055558
-1.628917	ध रा	-0.055558
-1.171914	क् रा	-0.055558
-1.923119	दि दे	-0.055558
-1.839996	दु जा	-0.055558
-2.014740	अ च	-0.055558
-1.991303	स रि	-0.055558
-2.182999	श ण	-0.055558
-1.917526	उ दी	-0.055558
-0.643007	रै या	-0.055558
-1.917764	क् ष्	-0.055558
-1.609523	लि ं	-0.055558
-1.293067	ने न्	-0.055558
-1.025959	धी र	-0.055558
-0.584095	  </s>
-1.336869	था नी	-0.055558
-1.262526	ता र	-0.180496
-1.699210	भि षे	-0.055558
-1.549800	मा नी	-0.356587
-2.147288	अ म्	-0.055558
-1.421089	मि </s>
-1.768316	 रा	-0.055558
-2.000370	नी ल	-0.055558
-1.775387	न ति	-0.356587
-2.365530	का लू	-0.055558
-1.370785	रू मा	-0.055558
-1.768745	ष दा	-0.055558
-1.226849	जु ग	-0.055558
-1.557572	व् यो	-0.055558
-1.947009	क् शु	-0.055558
-1.536731	रे ना	-0.055558
-1.830016	दा व	-0.055558
-0.892964	सै न	-0.055558
-0.553128	म् ब	-0.231649
-0.673568	ज य	-0.356587
-1.671515	मु वा	-0.055558
-1.521374	र् जु	-0.356587
-1.188279	ट व	-0.055558
-0.873785	तु रा	-0.055558
-2.173922	अ तु	-0.055558
-1.175362	या नी	-0.532679
-1.887889	नु त्ता	-0.055558
-0.931516	बु </s>
-1.591379	स मी	-0.055558
-2.654190	 गो	-0.055558
-1.910238	र फा	-0.055558
-1.891580	री ला	-0.055558
-1.551219	व ं	-0.055558
-1.852306	ता म	-0.055558
-1.561240	अ र	-0.055558
-1.234343	सि नी	-0.055558
-2.457365	 जु	-0.055558
-1.907027	 द	-0.055558
-1.591934	तु स्	-0.055558
-1.419420	श र	-0.055558
-1.347880	श् ता	-0.055558
-2.339326	न वा	-0.055558
-1.620580	उ मा	-0.055558
-1.818871	अ श्	-0.055558
-2.590081	ं ठ	-0.055558
-1.661428	चि त्	-0.055558
-2.354241	रा बी	-0.055558
-1.234343	बि नी	-0.055558
-1.985185	ता श	-0.055558
-1.366716	वै ना	-0.055558
-2.112047	 वी	-0.055558
-1.737557	आ स	-0.055558
-1.703415	जी तू	-0.055558
-1.079979	ए क	-0.055558
-1.208621	ँ स	-0.055558
-0.970371	क् षा	-0.532679
-2.322419	 ले	-0.055558
-0.651172	प्पा दा	-0.055558
-2.366706	त ल्ली	-0.055558
-1.333257	हु मा	-0.055558
-1.638633	 म	-0.055558
-1.287786	यो मा	-0.055558
-0.252946	षा </s>
-2.285380	 शि	-0.055558
-1.528529	व ना	-0.055558
-1.084427	मू द	-0.055558
-1.246688	नि या	-0.356587
-1.890528	र र	-0.055558
-0.948089	त् य	-0.277406
-1.699086	आ र्	-0.055558
-2.088814	त री	-0.055558
-2.457365	 सु	-0.055558
-0.457705	दा </s>
-1.041877	बु ना	-0.055558
-1.660130	र म	-0.055558
-1.623241	वे सा	-0.055558
-1.039855	सू ल	-0.055558
-1.747106	ह क	-0.055558
-1.864636	त् क	-0.055558
-1.514443	आ न	-0.055558
-0.958011	सै षा	-0.055558
-1.009041	कु ल	-0.055558
-1.395231	धि नी	-0.055558
-0.637381	ब् रा	-0.055558

\3-grams:
-0.764156	र बि ं	-0.044076
-0.883031	नि रु द्	-0.044076
-1.231884	<s> आ यु	-0.044076
-1.379850	च ं द्	-0.044076
-1.608908	 च रि	-0.044076
-0.693269	का ं ति	-0.044076
-1.214924	 मे ना	-0.044076
-0.259002	न य </s>
-1.219086	ह र जी	-0.044076
-1.056437	 रू हा	-0.044076
-0.769700	ई नि या	-0.044076
-0.326475	स् था </s>
-0.162599	रा या </s>
-0.606709	ग ना थ	-0.044076
-1.195503	ह रि </s>
-0.271669	ज री </s>
-1.177622	 म ं	-0.044076
-0.666309	वै द् य	-0.044076
-0.561188	ह मा न	-0.044076
-1.360241	र ण दा	-0.044076
-0.725682	सु शी ला	-0.044076
-1.638791	<s> अ मि	-0.044076
-1.146697	रा री ला	-0.044076
-1.916202	 रा भ्	-0.044076
-0.871243	 रा ज	-0.044076
-1.072381	क् रा ं	-0.044076
-0.246194	र फा </s>
-0.624166	दा रि का	-0.044076
-1.094898	ग दी श	-0.044076
-1.040381	चि न् म	-0.044076
-1.091771	ं द न	-0.345106
-0.369777	मी दा </s>
-1.071789	उ त्त र	-0.044076
-1.093173	ं द ना	-0.345106
-1.213954	त न् म	-0.044076
-0.047740	न् या </s>
-0.864579	शा ल ता	-0.044076
-1.623565	क र ता	-0.044076
-1.598392	वि न ता	-0.044076
-0.031071	रे श </s>
-1.189271	अ य प्पा	-0.044076
-1.039597	मे घ वि	-0.044076
-0.281527	रे ना </s>
-1.335345	न य न	-0.044076
-0.176047	बि नी </s>
-0.741339	छ वि </s>
-1.007233	आ न न्	-0.044076
-0.544846	चि रा </s>
-0.217030	व नी </s>
-0.767946	दा व री	-0.044076
-1.343570	ग त पा	-0.044076
-0.730188	स् वि नी	-0.044076
-1.967449	<s>  दे	-0.299348
-0.859807	दि प् ती	-0.044076
-0.969221	त् स ना	-0.044076
-1.126858	व् या न	-0.044076
-0.511046	ता नु </s>
-1.144025	 बा ल	-0.044076
-1.427078	त र नी	-0.044076
-1.213503	अ नि ल	-0.044076
-1.454895	<s> इ त्	-0.345106
-0.326475	भा गा </s>
-0.274475	जे श् व	-0.044076
-0.784961	शि कि र	-0.044076
-1.614885	<s> अ श्	-0.220167
-0.900473	वि ता हा	-0.044076
-1.444046	अ नु रा	-0.044076
-1.921819	<s>  मु	-0.089833
-0.842915	वि क र्	-0.044076
-0.180490	त्त म </s>
-1.484621	 मि सा	-0.044076
-0.683889	स स् मि	-0.044076
-0.893616	उ रि शि	-0.044076
-1.096329	ं पा मा	-0.044076
-1.767601	 वि क्	-0.044076
-0.483996	 खे म	-0.044076
-0.503684	ह बू ब	-0.044076
-1.159599	र वा थि	-0.044076
-1.445901	 मु श्	-0.044076
-1.503853	 मु स्	-0.044076
-0.824612	स् वे ता	-0.044076
-2.360460	<s>  हु	-0.044076
-0.836689	श् रे ना	-0.044076
-0.437402	नी रा </s>
-0.871572	गो वि न्	-0.044076
-1.306964	<s> ए का	-0.044076
-1.403023	 स र	-0.044076
-0.706347	नु ल ता	-0.044076
-0.543263	ला प् रि	-0.044076
-1.583270	 म नी	-0.044076
-0.859471	ज्जा नि नी	-0.044076
-0.159127	मी र </s>
-1.896403	 व रु	-0.044076
-1.000843	ज् यो त्	-0.044076
-1.615888	 रु पे	-0.044076
-1.470765	अ म रे	-0.044076
-0.342291	तु लि का	-0.044076
-0.861105	म धु </s>
-0.494988	व म </s>
-1.035878	 सि ं	-0.044076
-0.847837	मु रा री	-0.044076
-1.692581	 र वि	-0.044076
-1.890348	<s> इ श	-0.044076
-0.664370	ं दी </s>
-0.916918	ध न् य	-0.044076
-1.032560	 व र	-0.044076
-1.205764	 गो रॉ	-0.044076
-1.235932	 म न	-0.044076
-0.205231	ं ग </s>
-0.776402	 कु ं	-0.044076
-1.531751	कु ं व	-0.044076
-0.717311	म द र्	-0.044076
-1.644250	त् रि ध	-0.044076
-0.895174	चै ता ली	-0.044076
-1.696006	अ ं बि	-0.044076
-0.220394	रि ं द	-0.044076
-0.140366	ल श </s>
-0.176047	वे नी </s>
-0.901064	रा य ण	-0.044076
-0.833187	नु मो दि	-0.044076
-0.334009	ग दे व	-0.044076
-0.060223	क् षा </s>
-1.252875	ता लि न	-0.044076
-1.448714	 स ं	-0.044076
-0.379524	पा सी </s>
-1.015270	 हे म	-0.044076
-1.481683	 ह र	-0.044076
-0.276383	र ते श	-0.044076
-1.498129	 त न्	-0.044076
-0.259310	ग ति </s>
-1.323295	त नु श्	-0.044076
-2.052658	 स चे	-0.044076
-1.149973	र ह स्	-0.044076
-0.169658	प् ती </s>
-0.302021	च ला </s>
-0.159127	दा र </s>
-0.741931	क वा ना	-0.044076
-0.501046	सू मा </s>
-0.748342	सु म ं	-0.044076
-1.218077	ध व ल	-0.044076
-1.736564	 ता न्	-0.044076
-0.259310	भू ति </s>
-0.750390	उ दा र	-0.044076
-1.849087	 ना गे	-0.044076
-0.745842	<s> इ न्	-0.345106
-0.982834	ं गा म	-0.044076
-1.458924	ज ग दे	-0.044076
-1.052173	ला व ती	-0.044076
-1.022948	द या म	-0.044076
-1.753905	व र दा	-0.044076
-1.248967	र वि ं	-0.044076
-0.497530	व ण् य	-0.044076
-0.554175	नो ब र	-0.044076
-0.375369	मु ख </s>
-1.205583	कु ं ज	-0.044076
-0.332003	स् त </s>
-1.714082	म न स्	-0.044076
-0.273560	र द त्त	-0.521197
-1.072096	मु स् का	-0.044076
-1.643534	च ं पा	-0.044076
-1.519636	 मु के	-0.044076
-0.783337	ता न् या	-0.044076
-1.465671	 नि र्	-0.044076
-0.927614	र् म रा	-0.044076
-0.706347	री ल ता	-0.044076
-2.027588	 स लो	-0.044076
-0.656566	नि त् या	-0.044076
-1.073409	 कौ स	-0.044076
-0.548114	क् ख न	-0.044076
-0.910806	व् र ते	-0.044076
-0.583958	 श् री	-0.044076
-1.369121	ह र बि	-0.044076
-0.276228	ज ता </s>
-0.883884	द् रि स	-0.044076
-2.054730	<s> आ दे	-0.044076
-0.431222	दे व् या	-0.044076
-1.276876	 वि र	-0.044076
-0.864870	अ ह ला	-0.044076
-0.106173	म यी </s>
-1.037562	द् य म	-0.044076
-0.838955	इ मा नी	-0.044076
-0.412912	बी र </s>
-1.478205	 मि शि	-0.044076
-0.658191	ं दु </s>
-1.093998	उ त्त रा	-0.044076
-1.377714	 रि श्	-0.044076
-0.662041	हि ते न्	-0.044076
-0.870243	त ब स्सु	-0.044076
-2.371746	<s>  मै	-0.345106
-1.716829	न ं दा	-0.044076
-1.205346	अ न न्	-0.044076
-1.915055	 न ते	-0.044076
-0.428733	 वी र	-0.044076
-1.144000	सा वि त्	-0.044076
-1.145175	 गो व	-0.044076
-0.672981	वा नि का	-0.044076
-0.861893	बि हा री	-0.044076
-1.427375	<s> उ म	-0.044076
-0.024676	के श </s>
-1.746406	 र न	-0.044076
-0.711301	रू हा न	-0.044076
-1.838999	 वि दु	-0.044076
-0.371676	र् य </s>
-1.959254	 म ही	-0.044076
-0.789990	 शै ली	-0.044076
-0.470672	ं क </s>
-1.332522	अ र् जु	-0.044076
-1.461915	ए क चि	-0.044076
-0.534774	ण दा स	-0.044076
-0.814925	न रो त्त	-0.044076
-0.847251	न् का लि	-0.044076
-0.334009	दि दे व	-0.044076
-0.892130	चा र् वी	-0.044076
-0.733823	वि जु ल	-0.044076
-1.048374	श शि नी	-0.044076
-1.891492	न ं धि	-0.044076
-1.684495	स ं भ	-0.044076
-1.199452	चा रु ल	-0.044076
-0.651044	सा ज न	-0.044076
-1.163685	र वा डी	-0.044076
-0.319746	ली न </s>
-1.078204	र भा न	-0.044076
-1.053882	क र् ष	-0.044076
-0.106173	मु खी </s>
-0.326475	मि था </s>
-1.666388	 च मे	-0.044076
-0.854897	व शि ष्	-0.044076
-1.769632	<s> अ रा	-0.044076
-1.987822	<s> उ दा	-0.044076
-1.494256	दे व ना	-0.044076
-0.399723	श् क </s>
-0.849380	स प् त	-0.044076
-2.027588	 स बी	-0.044076
-0.162599	ति या </s>
-0.618466	अ तु ल	-0.044076
-1.497374	 नि मि	-0.044076
-0.803103	ना गा र्	-0.044076
-1.554404	 नि धी	-0.044076
-1.778730	 मा ध	-0.044076
-0.456737	म णी </s>
-1.008083	र ण वी	-0.044076
-0.531455	 दु ला	-0.044076
-0.447690	नु श् री	-0.044076
-0.412912	त्त र </s>
-1.588028	अ नु भू	-0.044076
-2.358848	<s> अ दि	-0.044076
-1.831512	 ता रे	-0.044076
-1.817282	 का ज	-0.044076
-0.501046	लि मा </s>
-0.802785	र द </s>
-1.884404	 वि भी	-0.044076
-2.743617	<s>  गि	-0.044076
-0.508879	उ ल्लु पी	-0.044076
-0.479459	दे ही </s>
-0.845493	स् म ृ	-0.044076
-1.028830	 चि त	-0.044076
-1.123654	 हा मि	-0.044076
-0.747467	रि न य	-0.044076
-0.271669	को री </s>
-0.486244	वि र </s>
-0.204604	रे न् द्	-0.345106
-0.271669	गू री </s>
-0.851371	रु तु जा	-0.044076
-0.861010	ज्ज वा ला	-0.044076
-1.408046	 कु व	-0.044076
-0.659069	दि त् य	-0.044076
-0.408200	न् म य	-0.345106
-1.405005	 मा र	-0.044076
-1.169964	आ यु शी	-0.044076
-1.076257	व र् या	-0.044076
-0.642695	रा व </s>
-1.237273	अ जि त	-0.044076
-1.351256	म ृ त	-0.044076
-0.896279	ँ व ली	-0.044076
-0.177800	रि ओ म	-0.044076
-0.880074	न मा ला	-0.044076
-0.507508	जी व न	-0.345106
-0.247599	ग ल </s>
-0.944144	व ज् र	-0.044076
-3.214288	<s>  जु	-0.044076
-0.447690	मा श् री	-0.044076
-1.097200	अ रु नी	-0.044076
-0.395330	चे त न	-0.345106
-1.240046	चि त् र	-0.044076
-0.288195	हा य </s>
-0.725682	रु शी ला	-0.044076
-0.140366	री श </s>
-1.515308	स ं दी	-0.044076
-0.176047	सि नी </s>
-0.170905	य   </s>
-0.313896	मा ल </s>
-0.835551	न म य	-0.044076
-1.363300	ला व ण्	-0.044076
-1.288304	ज य ना	-0.044076
-0.288195	श् य </s>
-0.437402	ज् रा </s>
-0.342291	को लि का	-0.044076
-0.705841	धु क र	-0.044076
-0.486244	हा र </s>
-1.045881	ष् य रा	-0.044076
-1.136316	रु प द	-0.044076
-0.513335	अ ज य	-0.044076
-0.279325	प त </s>
-0.813666	इ श र	-0.044076
-0.379524	क् शु </s>
-0.189613	मि ता </s>
-0.437402	त्त रा </s>
-1.442398	अ र् ना	-0.044076
-1.468951	 कु सू	-0.044076
-0.212837	त न </s>
-0.903692	ब् रा हि	-0.044076
-0.916918	ग न् य	-0.044076
-0.966591	क ृ ति	-0.044076
-1.361394	म धु ल	-0.044076
-0.399723	द्द क </s>
-0.592735	उ मा </s>
-0.773260	च न् द्	-0.044076
-1.659551	 वा गी	-0.044076
-0.456737	वि क्की </s>
-1.921351	<s> आ श्	-0.044076
-0.808274	अ धि रा	-0.044076
-1.878817	 त नि	-0.044076
-1.374724	 हि मा	-0.044076
-2.039942	 स नो	-0.044076
-1.598805	व र जी	-0.044076
-1.679302	<s>  का	-0.102068
-0.712021	णि पा ल	-0.044076
-0.328508	श् ता </s>
-1.037812	 द र्	-0.044076
-0.073734	ध् या </s>
-1.902388	 का जो	-0.044076
-0.056857	वी र </s>
-0.508879	 टि म्मी	-0.044076
-1.008228	का म रा	-0.044076
-1.103256	उ त् प	-0.044076
-0.900675	ज्ञा ना दा	-0.044076
-0.573173	र कु मा	-0.044076
-0.456737	टि म्मी </s>
-0.247599	पु ल </s>
-0.425976	मि द </s>
-1.862445	द् र कु	-0.044076
-0.891385	त री शी	-0.044076
-0.286628	दि ने श	-0.044076
-0.653662	ष त् रा	-0.044076
-1.295648	अ नि ष	-0.044076
-1.490627	वि न ति	-0.044076
-0.790615	मै त् रा	-0.044076
-1.084094	र् य न	-0.044076
-1.190399	र म वी	-0.044076
-1.835405	 सा थी	-0.044076
-1.074905	<s> अ भि	-0.044076
-0.131088	ख न </s>
-0.357486	मा प् र	-0.044076
-1.061047	आ दि ता	-0.044076
-2.102337	<s> इ नो	-0.044076
-0.826391	शी र् वा	-0.044076
-0.874209	अ हि ल्	-0.044076
-0.629801	जा फ र	-0.044076
-0.881509	 मै त्	-0.044076
-0.064537	गे श </s>
-0.633267	स ज्ज न	-0.044076
-0.176047	जि नी </s>
-0.585265	ओ म </s>
-0.485975	 झि ल	-0.044076
-0.883310	जु ग नु	-0.044076
-2.484348	<s>  रू	-0.220167
-1.887648	<s> अ भ	-0.345106
-1.945019	 क हि	-0.044076
-0.653662	रि त् रा	-0.044076
-0.931269	हि मा ं	-0.044076
-1.765957	<s> अ मा	-0.044076
-0.281527	म् ना </s>
-1.912541	 क वी	-0.044076
-0.352204	पि का </s>
-0.902005	झि ल मि	-0.044076
-1.098927	श शि कि	-0.044076
-0.092045	रो ली </s>
-1.547582	त र ली	-0.044076
-0.513916	द म् ब	-0.044076
-1.018241	म हा र	-0.044076
-0.486244	धी र </s>
-0.536949	 व् या	-0.044076
-0.281527	भ ना </s>
-0.106173	स खी </s>
-0.859989	मो दि त	-0.044076
-0.092045	दा ली </s>
-0.962329	स न ं	-0.044076
-0.682455	ं कु र	-0.044076
-0.179821	त् य </s>
-0.170905	क् षी </s>
-0.079163	पि नी </s>
-2.403460	<s>  दा	-0.044076
-0.049850	रे खा </s>
-0.770415	 शु भ	-0.044076
-0.775706	ं द र	-0.521197
-1.578380	अ नु त्ता	-0.044076
-1.137676	र भा गा	-0.044076
-1.289825	 वे नु	-0.044076
-0.288195	ण् य </s>
-0.589900	र मो ह	-0.044076
-1.240035	व र् ण	-0.044076
-0.807179	न रे न्	-0.044076
-1.835405	 सा ई	-0.044076
-0.817749	च् यु त	-0.044076
-0.816156	सु मी ता	-0.044076
-0.893064	मु नी रा	-0.044076
-0.692820	उ मि का	-0.044076
-0.717740	ही रो </s>
-0.875222	श् रि ला	-0.044076
-0.281527	हा ना </s>
-1.977363	<s>  द	-0.169014
-0.539625	ला ई </s>
-1.420068	व ना नी	-0.044076
-1.981160	<s> अ र	-0.044076
-1.470287	मा ं क	-0.044076
-1.341083	र् व ग	-0.044076
-1.012631	हे मा ं	-0.044076
-1.564762	 मु फी	-0.044076
-0.357714	त ला </s>
-1.185262	उ मा प्	-0.044076
-0.943796	रा ध् य	-0.044076
-1.787192	 सा ध	-0.044076
-0.998560	मै त् री	-0.044076
-0.352204	रू का </s>
-0.886770	ति श् य	-0.044076
-0.319746	से न </s>
-2.003886	 स चि	-0.044076
-0.578095	रा धि का	-0.044076
-0.456737	सा ची </s>
-0.391750	न व </s>
-1.703336	र ं हि	-0.044076
-0.744706	ह सी ना	-0.044076
-1.071496	 गु रि	-0.044076
-1.239803	ए क ल	-0.044076
-1.113974	आ त् म	-0.044076
-1.259192	ं ज ल	-0.044076
-1.348685	मा ल ती	-0.044076
-0.271669	हा री </s>
-0.456737	वा डी </s>
-1.322326	 त् वे	-0.044076
-1.979312	 म यू	-0.044076
-1.190100	न र प	-0.044076
-1.767210	 मा रु	-0.044076
-0.328683	जि ते श	-0.044076
-1.923596	श् री कु	-0.044076
-1.610228	 श री	-0.044076
-0.176047	न् नी </s>
-0.894916	वि ना श	-0.044076
-0.079163	मा नी </s>
-0.440590	म रे श	-0.044076
-0.271669	ला री </s>
-1.006767	हे म ं	-0.044076
-0.883675	ल क् ष्	-0.044076
-1.791563	क ला प्	-0.044076
-1.930091	 व जे	-0.044076
-0.501046	नी मा </s>
-1.897550	श् री नि	-0.044076
-0.730548	नु रा ज	-0.044076
-0.784398	मे हु ल	-0.044076
-1.057696	क र् ण	-0.044076
-1.689543	 स ल	-0.044076
-0.369777	र दा </s>
-0.955702	उ द य	-0.044076
-1.401523	 तु स्	-0.044076
-0.423701	न् द </s>
-0.719944	त ला ल	-0.044076
-0.653206	दु मौ ली	-0.044076
-1.329576	 वि का	-0.044076
-2.211105	<s>  नी	-0.044076
-1.183774	या म ली	-0.044076
-0.896559	 धी रे	-0.044076
-0.791379	ं प त्ति	-0.044076
-1.735619	 सा वि	-0.044076
-0.247599	नी ल </s>
-2.177247	<s> उ ल्लु	-0.044076
-0.437402	वि रा </s>
-1.263504	 सु न्	-0.044076
-0.412941	क ृ ष्	-0.044076
-0.849380	इ द् रि	-0.044076
-0.092045	से ली </s>
-0.653206	म यू रि	-0.044076
-1.632853	द् र क	-0.044076
-1.900200	 क नि	-0.044076
-1.219186	चि रा ग	-0.044076
-1.499095	 श् रे	-0.044076
-0.897240	झ म क	-0.044076
-1.592245	<s>  न	-0.208886
-0.745874	रू पा ली	-0.044076
-0.660555	ं को लि	-0.044076
-0.698562	 शा ली	-0.044076
-0.140366	गी श </s>
-3.353843	<s>  लु	-0.044076
-1.313768	 व न	-0.044076
-0.692138	ई शा नी	-0.044076
-0.319746	ब न </s>
-0.213567	वी षा </s>
-1.559544	द् र जी	-0.044076
-1.185363	र का श	-0.044076
-0.794389	 ला ल	-0.044076
-0.162599	रै या </s>
-0.092045	र ली </s>
-0.319746	न न </s>
-0.851520	रि ध रा	-0.044076
-1.566212	 च त	-0.044076
-1.388279	ं ति ला	-0.044076
-1.413296	म ं ती	-0.044076
-0.727234	हु स ना	-0.044076
-1.419633	न् दु हा	-0.044076
-1.602564	दी प शि	-0.044076
-0.708177	द् ध व	-0.044076
-0.401918	र् षि ता	-0.044076
-1.094838	नु रा ग	-0.044076
-2.195773	<s>  </s>
-0.494108	ग ध र	-0.044076
-0.919593	अ च ल	-0.044076
-0.848968	ग स् त्	-0.044076
-0.786612	व जे ं	-0.044076
-0.281527	गू ना </s>
-1.487720	 चि त्	-0.044076
-0.900130	भी श ण	-0.044076
-0.804321	रि श् मि	-0.044076
-0.706352	नु त्ता रा	-0.044076
-0.846943	र चि ता	-0.044076
-0.669006	ं क् षा	-0.044076
-0.885561	ं र ल	-0.044076
-0.769700	ृ षि के	-0.044076
-1.392292	आ दि दे	-0.044076
-0.334009	हा दे व	-0.044076
-0.392586	ली शा </s>
-1.598786	 रु चि	-0.044076
-1.520449	 क द	-0.044076
-0.281527	शी ना </s>
-0.698284	र् चि त	-0.044076
-0.975298	त् रि या	-0.044076
-0.849270	सा लि मा	-0.044076
-1.007233	ध न न्	-0.044076
-1.478239	 हि ते	-0.044076
-1.283626	उ त् क	-0.044076
-1.199392	त् म जा	-0.044076
-0.513916	अ म् ब	-0.044076
-1.110923	 जी तू	-0.044076
-1.873357	<s> अ रु	-0.044076
-0.615235	 जी व	-0.044076
-0.888301	मु क् षु	-0.044076
-1.099082	 कौ मु	-0.044076
-0.911782	सा ं झ	-0.044076
-0.276383	न ते श	-0.044076
-1.671903	 ना र	-0.044076
-1.351114	 दे वा	-0.044076
-0.125269	र ला </s>
-0.871350	आ श् र	-0.044076
-0.438835	म ल </s>
-1.327442	हे मा श्	-0.044076
-1.179124	श री फा	-0.044076
-1.841657	 व ज	-0.044076
-1.355499	कु ं ती	-0.044076
-0.564834	रु नि का	-0.044076
-0.106388	प ल </s>
-1.098625	उ त् स	-0.044076
-0.958131	त् म न	-0.044076
-0.863402	कु सू मा	-0.044076
-2.317847	<s> अ ति	-0.044076
-0.354537	म णि </s>
-1.167623	ह री प्	-0.044076
-0.894628	तु र न्	-0.044076
-0.369777	दी दा </s>
-1.264215	 ह र्	-0.044076
-0.919960	या ग ं	-0.044076
-1.126761	इ शा यु	-0.044076
-0.866153	दे वा श्	-0.044076
-0.847032	पा ं शु	-0.044076
-0.858602	वै दे ही	-0.044076
-1.338366	मा ं </s>
-0.352204	थि का </s>
-0.651044	भ ज न	-0.044076
-1.138469	<s>  स	-0.392530
-0.498040	त्ता ् त्	-0.044076
-1.915055	 न रो	-0.044076
-1.161305	 गो दा	-0.044076
-0.923473	वि क् रा	-0.044076
-0.486471	 ज्ञा ना	-0.044076
-1.100471	इ शा न्	-0.044076
-0.922169	या ग रा	-0.044076
-0.816514	 जे की	-0.044076
-0.689113	<s> इ ं	-0.697288
-0.900962	वि न् दी	-0.044076
-0.092045	ज़ा ली </s>
-0.660862	म च ं	-0.044076
-0.281527	मै ना </s>
-0.812445	हा का ं	-0.044076
-0.176047	शि नी </s>
-0.309473	ृ ति </s>
-1.865559	 र श्	-0.044076
-1.030907	स र् व	-0.044076
-0.357486	प प् र	-0.044076
-1.118961	 रे णु	-0.044076
-1.931735	 क पा	-0.044076
-0.180245	 चे त	-0.044076
-1.300873	र् ष दा	-0.044076
-1.241881	<s> इ शा	-0.220167
-0.539625	सा ई </s>
-1.317490	स र् वि	-0.044076
-1.295648	अ नि रु	-0.044076
-1.330848	 सु रे	-0.044076
-0.600632	शु भ न	-0.044076
-0.809966	श् या म	-0.044076
-0.895524	थ् या ज	-0.044076
-1.747058	<s>  ना	-0.116626
-1.303805	 स व	-0.044076
-2.371746	<s>  चा	-0.345106
-0.744057	रि ग ं	-0.044076
-0.562066	ल कि शो	-0.044076
-2.083195	<s> आ भा	-0.044076
-0.597949	ं दी प	-0.044076
-1.475934	 चि द	-0.044076
-0.140366	नि श </s>
-1.320152	 मे घ	-0.044076
-1.524424	 का म्	-0.044076
-0.708052	ं हि ता	-0.044076
-1.189241	त् स वी	-0.044076
-0.204604	ते न् द्	-0.345106
-0.748983	र् दि नी	-0.044076
-1.944334	 व ज्	-0.044076
-0.049535	म ती </s>
-0.425976	जि द </s>
-1.171329	 च न्	-0.044076
-1.901682	 त ह	-0.044076
-0.302021	इ ला </s>
-0.646697	रा भ् या	-0.044076
-0.380579	म रा ज	-0.521197
-0.231598	म नी </s>
-0.264476	रा म </s>
-0.975363	सा वि र	-0.044076
-1.198257	क म ले	-0.044076
-1.292156	का ं ता	-0.044076
-0.140366	जे श </s>
-1.063324	क द म्	-0.044076
-0.997451	प् रि या	-0.044076
-1.901602	 स क्	-0.044076
-0.943232	व ं द	-0.044076
-0.302021	जु ला </s>
-0.751918	 मो ह	-0.044076
-0.718038	ं गू री	-0.044076
-0.140366	त्ते श </s>
-0.657600	 जो वा	-0.044076
-0.754849	सु बि न	-0.044076
-0.064537	का श </s>
-1.184941	नि र् धा	-0.044076
-0.041942	ले श </s>
-1.175386	आ यु ष	-0.044076
-0.697852	ं पा </s>
-1.910812	 स प	-0.044076
-0.610206	वै भ व	-0.044076
-1.436269	 वै सा	-0.044076
-0.650480	स मी </s>
-0.395330	के त न	-0.345106
-0.534774	व दा स	-0.044076
-1.381741	 र ं	-0.044076
-1.161135	वि न य	-0.044076
-0.852451	 त् या	-0.044076
-0.771291	मे ना रा	-0.044076
-0.403452	रि लो क	-0.044076
-0.579888	मा लि का	-0.044076
-0.110219	ला श </s>
-0.157424	श् री </s>
-0.615235	ं जी व	-0.044076
-0.171368	तो ष </s>
-0.016494	ना थ </s>
-1.446023	अ म री	-0.044076
-1.383402	ता र क	-0.044076
-3.353843	<s>  खे	-0.044076
-1.987822	<s> उ स	-0.044076
-0.725719	 तो शा	-0.044076
-0.400694	ला पि नी	-0.044076
-1.546905	न न् हे	-0.044076
-1.344696	म ृ ता	-0.044076
-0.051141	या नी </s>
-0.506274	अ च् यु	-0.044076
-0.092045	म ली </s>
-0.456737	क् षु </s>
-0.906399	खे म च	-0.044076
-0.106173	र थी </s>
-0.599931	त र ं	-0.044076
-1.318369	<s> ए श्	-0.044076
-0.470672	प क </s>
-1.257783	म ं ज	-0.044076
-0.694388	ती मि ला	-0.044076
-1.295135	<s>  म	-0.459049
-1.053171	<s> आ का	-0.169014
-1.783706	 ता ज	-0.044076
-0.171368	ही ष </s>
-0.894454	म ह मू	-0.044076
-0.877582	रु क् मि	-0.044076
-0.186572	म न </s>
-1.030786	 ही रो	-0.044076
-1.097475	 त् रि	-0.044076
-2.115840	<s> उ षा	-0.044076
-0.896149	स द ग	-0.044076
-0.874667	बा ं के	-0.044076
-1.378537	म ृ त्	-0.044076
-0.786014	वा गी श्	-0.044076
-0.885340	कौ श ल	-0.044076
-0.276228	भि ता </s>
-1.678075	दे व दा	-0.044076
-0.211891	रु ष </s>
-0.558106	मु दी </s>
-0.399721	प् रि य	-0.345106
-0.863812	ना ह त	-0.044076
-1.781964	रा ज म	-0.044076
-0.655666	ँ स </s>
-1.370022	 दे वे	-0.044076
-0.673248	श् व र	-0.345106
-1.277366	चा रु शी	-0.044076
-0.399723	ह क </s>
-0.782136	वा स व	-0.044076
-1.196505	क ल व्	-0.044076
-1.873357	<s> अ च	-0.044076
-0.507835	 शे ज़ा	-0.044076
-1.582524	<s>  रा	-0.198978
-3.108838	<s>  ख	-0.044076
-2.669549	<s>  जी	-0.044076
-0.596115	रू प </s>
-1.085775	ज ग न्	-0.044076
-0.073734	ल् या </s>
-1.968184	 र धि	-0.044076
-0.502137	 छ वि	-0.044076
-0.848298	 झ म	-0.044076
-0.308483	हि ब </s>
-1.291111	<s> अ र्	-0.044076
-0.875841	दे ली ना	-0.044076
-0.870546	दु मु खी	-0.044076
-0.202502	री फा </s>
-0.847746	कु ं ठ	-0.345106
-0.899535	 से म	-0.044076
-0.644458	का मे श	-0.044076
-0.106388	पा ल </s>
-0.861267	रि शि ल्ला	-0.044076
-0.781095	 कै ला	-0.044076
-1.562972	अ र् च	-0.044076
-0.399723	ती क </s>
-1.319284	र ं ग	-0.044076
-0.644458	यो मे श	-0.044076
-0.769139	रि म न	-0.044076
-1.844818	 ना सि	-0.044076
-1.248021	चे त न्	-0.044076
-0.833155	अ भ य	-0.044076
-1.877283	 न वा	-0.044076
-1.213181	त् प त्ति	-0.044076
-0.533139	र ज </s>
-0.485500	ं द </s>
-1.589057	प् र भु	-0.044076
-1.202992	ह ं सि	-0.044076
-0.507623	रो त्त म	-0.044076
-0.313628	वि न </s>
-1.441582	 मि रि	-0.044076
-1.193385	<s> अ म	-0.287114
-0.873641	इ क् षि	-0.044076
-0.932159	वि दि ता	-0.044076
-0.770324	नु प मा	-0.044076
-0.844940	धु ब न	-0.044076
-0.901694	अ मू ल्	-0.044076
-1.449919	 त र	-0.044076
-0.319746	लि न </s>
-0.079163	लि नी </s>
-0.256511	ध वी </s>
-0.826391	शि र् वा	-0.044076
-1.478121	<s> आ लो	-0.345106
-2.013922	 र सू	-0.044076
-0.138180	न् य </s>
-1.209391	क मा ल	-0.044076
-1.910812	 स मि	-0.044076
-1.455384	व र् णि	-0.044076
-1.910135	 रा गि	-0.044076
-1.141791	रु पा सी	-0.044076
-1.826473	 स द	-0.044076
-0.281527	सी ना </s>
-0.247599	र ल </s>
-1.568489	ं ता नु	-0.044076
-1.894306	<s>  ज	-0.743046
-2.115840	<s> उ ल्	-0.044076
-1.037510	ग र द	-0.044076
-0.176047	प नी </s>
-0.073734	नि या </s>
-1.105507	 रे ह	-0.044076
-0.848298	कु सू म	-0.044076
-1.902498	<s> इ ला	-0.044076
-1.387410	त न् मा	-0.044076
-0.842915	त् क र्	-0.044076
-1.149524	 हा फ़ि	-0.044076
-1.442294	ह रि ओ	-0.044076
-0.870239	 तु रा	-0.044076
-1.636069	<s> अ नि	-0.044076
-1.947144	<s> उ श्	-0.044076
-1.808778	 का त्	-0.044076
-0.885812	क न् का	-0.044076
-1.268561	त नु ल	-0.044076
-0.934297	र फा न	-0.044076
-2.931876	<s>  शी	-0.044076
-0.773600	सि यो ना	-0.044076
-1.007931	ं दि नी	-0.044076
-0.941314	ह ँ स	-0.044076
-1.136361	इ ं दु	-0.044076
-1.440675	ं त ला	-0.044076
-0.826147	ना भि ता	-0.044076
-0.425433	य ना थ	-0.345106
-0.302021	रि ला </s>
-1.528755	अ भि षे	-0.044076
-1.797895	 वि प्	-0.044076
-0.379524	न घ </s>
-0.834243	का द म्	-0.044076
-1.305704	अ वि शी	-0.044076
-1.411427	म ृ ग	-0.044076
-2.264182	<s>  कौ	-0.140986
-0.960341	<s> आ दि	-0.140986
-0.594031	ल ल्ली </s>
-1.084304	या म यी	-0.044076
-0.929860	क् ष म	-0.044076
-1.000908	दु म ल	-0.044076
-1.469510	 नि त्	-0.044076
-1.103094	 क ला	-0.044076
-1.078553	क् रा न्	-0.044076
-0.597949	ग दी प	-0.044076
-1.246821	उ द् गि	-0.044076
-0.827904	 ले ख	-0.044076
-0.799176	मू ल् य	-0.044076
-0.276228	पि ता </s>
-0.763431	हा र् य	-0.044076
-1.687372	 च तु	-0.044076
-0.092045	ता ली </s>
-1.087312	य ण न	-0.044076
-1.313347	अ वि च	-0.044076
-0.499572	य प्पा दा	-0.044076
-0.494486	 छा या	-0.044076
-0.651496	ं झ </s>
-0.879816	रि दि ब	-0.044076
-0.707878	ृ ष् ण	-0.044076
-2.385391	<s>  री	-0.044076
-0.774009	आ शु तो	-0.044076
-0.501623	अ नू प	-0.044076
-0.834192	म ं ग	-0.044076
-1.002489	 हि ना	-0.044076
-1.431869	 वै ष्	-0.044076
-1.701082	दे व कु	-0.044076
-1.184867	ं स वे	-0.044076
-0.813517	हा भा द्	-0.044076
-0.747467	बि न य	-0.044076
-0.489959	 थे ं	-0.044076
-0.626066	र जि ता	-0.044076
-0.836509	ल् मी कि	-0.044076
-0.247599	श ल </s>
-1.589093	दी प प्	-0.044076
-1.933875	 म दी	-0.044076
-0.176047	लो नी </s>
-0.838955	हा मा नी	-0.044076
-0.873079	वे दा न्	-0.044076
-0.298337	फ़ि ज़ा </s>
-1.836595	 ता हि	-0.044076
-0.783058	स् का न	-0.044076
-0.446929	ई श् व	-0.044076
-1.076537	क मा ला	-0.044076
-0.492972	रे णु का	-0.044076
-1.205216	द म यी	-0.044076
-0.428733	त वी र	-0.044076
-0.867756	रु स् तो	-0.044076
-2.771408	<s>  शौ	-0.345106
-1.895923	<s> उ न्	-0.044076
-1.139821	न र ह	-0.044076
-0.412912	सि र </s>
-1.072158	व स वी	-0.044076
-0.709659	र् णि का	-0.044076
-1.820050	 ना दी	-0.044076
-1.735876	<s>  श	-0.345106
-1.314649	 मे हु	-0.044076
-1.775250	<s> इ र	-0.044076
-0.106173	शि खा </s>
-0.319746	भा न </s>
-0.385623	ं गा </s>
-0.810215	ले ख रा	-0.044076
-0.276228	ग ता </s>
-1.423707	 रि धि	-0.044076
-1.947003	 र च	-0.044076
-0.635430	द र् श	-0.044076
-1.275487	रा ज न	-0.044076
-0.845798	मौ स मी	-0.044076
-0.116513	षि ता </s>
-0.900054	ह ला दि	-0.044076
-0.787323	लि ं ग	-0.044076
-1.796327	 का द	-0.044076
-0.495498	भि षे क	-0.044076
-0.399723	ने क </s>
-0.828020	भि ला श	-0.044076
-0.073734	म् या </s>
-1.330626	ला श ना	-0.044076
-0.848237	दी प् ता	-0.044076
-1.190627	चा रु म	-0.044076
-1.897444	<s> अ मो	-0.345106
-0.176925	रा ज </s>
-0.281527	ल ना </s>
-2.245901	<s> अ ली	-0.044076
-1.537103	 वा र्	-0.044076
-0.092045	व ली </s>
-0.116513	रि ता </s>
-1.664222	 ह स	-0.044076
-0.507835	 तौ की	-0.044076
-0.890340	श ला का	-0.044076
-0.220110	ष् ण </s>
-0.992668	 वि न	-0.044076
-0.688171	ख़ु शा ल	-0.044076
-0.412912	धा र </s>
-1.815148	क ला पि	-0.044076
-0.958131	वा म न	-0.044076
-1.844818	 ना थि	-0.044076
-0.276228	मी ता </s>
-0.755406	कै शो री	-0.044076
-0.488258	द त्त </s>
-0.747532	य या नी	-0.044076
-0.609039	घ रा ज	-0.044076
-0.494988	री म </s>
-1.436009	 रि षि	-0.044076
-0.878339	श क् ति	-0.044076
-0.399723	फ क </s>
-1.580200	 क ृ	-0.044076
-1.331404	 दी क्	-0.044076
-1.910135	 रा धा	-0.044076
-1.560564	ं त ल	-0.044076
-1.939676	 स ह	-0.044076
-0.841963	म दी ना	-0.044076
-1.174253	य ना रा	-0.044076
-0.054824	न् त </s>
-0.853424	रा जी वि	-0.044076
-0.730188	जी वि नी	-0.044076
-2.636769	<s>  स्	-0.345106
-0.710489	नि धी श	-0.044076
-1.805810	 वि दि	-0.044076
-0.276228	रु ता </s>
-0.798893	लो त् प	-0.044076
-1.926808	 र शी	-0.044076
-0.515392	तु रा </s>
-0.162599	री या </s>
-0.895589	मे ह बू	-0.044076
-0.894454	मु ह म्म	-0.044076
-1.063408	न न् त	-0.044076
-0.715432	क चि त्त	-0.044076
-1.420480	 ति ल	-0.044076
-1.922947	<s> अ नू	-0.345106
-1.164609	ब ल रा	-0.044076
-1.484377	अ नु द	-0.044076
-1.289469	त् र र	-0.044076
-0.844110	उ ता लि	-0.044076
-0.437402	नि रा </s>
-1.523468	<s> अ खि	-0.169014
-1.842081	 स र्	-0.044076
-0.885187	ला दि था	-0.044076
-0.694973	रु धा म	-0.044076
-0.180123	ं गे श	-0.044076
-0.762612	ल सी दा	-0.044076
-0.486471	 टी ना	-0.044076
-0.751113	दे वे श	-0.044076
-3.214288	<s>  ज्	-0.044076
-0.402838	भी ध् या	-0.044076
-0.690316	वि ं द	-0.044076
-0.853872	ल लि त	-0.044076
-0.687498	ट व र	-0.044076
-2.264182	<s>  गो	-0.044076
-1.414941	मा ं शु	-0.044076
-1.392788	म हा का	-0.044076
-1.074889	वि र त	-0.044076
-0.352204	णु का </s>
-0.917907	न ट रा	-0.044076
-1.590429	ं दु बा	-0.044076
-0.279325	दि त </s>
-1.473413	 रु का	-0.044076
-0.894754	पा र् दि	-0.044076
-0.668127	ना वि न	-0.044076
-1.138104	कु सु मा	-0.044076
-2.448797	<s>  ती	-0.044076
-0.306332	ण वी </s>
-0.651751	च को री	-0.044076
-1.571697	 रु पा	-0.044076
-1.601411	अ र् चा	-0.044076
-0.360943	ं के श	-0.044076
-1.884404	 वि पु	-0.044076
-1.698257	 च को	-0.044076
-0.710489	उ पे न्	-0.044076
-0.641805	इ शि ता	-0.044076
-0.678108	सु रे खा	-0.044076
-0.412912	फ र </s>
-0.715275	दु क ला	-0.044076
-1.962965	<s>  हि	-0.220167
-1.515899	 म णि	-0.044076
-2.062049	<s> उ दि	-0.044076
-0.248663	यु शी </s>
-0.806266	 कै शो	-0.044076
-1.916301	 व शि	-0.044076
-0.092045	का ली </s>
-0.896787	वे द प्	-0.044076
-0.880181	म री श	-0.044076
-0.741526	मी कि </s>
-1.332827	मा ल य	-0.044076
-1.956514	<s> आ स	-0.044076
-0.308483	जी ब </s>
-0.099929	र जी त	-0.521197
-2.717499	<s>  जि	-0.044076
-1.428264	 चि ं	-0.044076
-1.060562	स चि न	-0.044076
-0.874667	ब ं के	-0.044076
-0.110582	न ति </s>
-0.176047	ना नी </s>
-0.352204	णि का </s>
-1.557809	 र ण	-0.044076
-1.353982	चि रा यु	-0.044076
-0.648568	रा मे श्	-0.044076
-1.425165	<s> इ रा	-0.044076
-1.877137	 र त्	-0.044076
-0.544416	दु ला री	-0.345106
-1.293458	 द या	-0.044076
-1.417522	र् प नि	-0.044076
-2.129606	<s>  ति	-0.044076
-0.996921	ं व ल	-0.044076
-1.736967	 र फा	-0.044076
-0.962074	अ रु ण	-0.044076
-0.758826	रो ह न	-0.044076
-0.286628	ग् ने श	-0.044076
-1.230076	रा म रा	-0.044076
-0.702757	सु प ति	-0.044076
-0.171368	नि ष </s>
-0.159127	का र </s>
-1.133937	व रु नि	-0.044076
-0.319746	द न </s>
-1.041405	उ द या	-0.044076
-0.426399	का लि का	-0.044076
-0.212837	का न </s>
-1.476269	व ना थी	-0.044076
-1.224150	दी प मा	-0.044076
-0.202502	व थ </s>
-0.839673	आ दे श	-0.044076
-0.715275	म क ला	-0.044076
-0.871100	र शी दा	-0.044076
-0.666674	स क् ष	-0.044076
-0.902506	ता रा च	-0.044076
-0.789990	 हू रि	-0.044076
-0.297540	र् शी </s>
-0.683356	ष् ट </s>
-1.622587	 श क्	-0.044076
-0.880282	वा च स्	-0.044076
-1.220726	 ना रा	-0.044076
-0.085580	म दे व	-0.521197
-0.271669	ग़ौ री </s>
-0.375369	सु ख </s>
-1.462259	अ ं श	-0.044076
-0.288195	ध् य </s>
-1.890514	<s>  त्	-0.566954
-1.512175	न् द रा	-0.044076
-2.523070	<s>  धी	-0.220167
-1.717928	 का ल	-0.044076
-0.729444	था नी षा	-0.044076
-2.031302	<s>  हे	-0.470044
-0.116513	शि ता </s>
-0.848616	क लि ं	-0.044076
-1.081977	जि ता भ	-0.044076
-1.274345	आ दि ल	-0.044076
-1.531669	 ल क्	-0.044076
-0.876941	ता रि क	-0.044076
-0.727725	क बी र	-0.044076
-0.106388	च ल </s>
-2.626370	<s>  शा	-0.345106
-0.743812	वि च ल	-0.044076
-0.682455	ठा कु र	-0.044076
-2.039942	 स खी	-0.044076
-0.772796	पा व ती	-0.044076
-0.494988	स्सु म </s>
-2.154358	<s>  ला	-0.140986
-0.279325	ृ त </s>
-1.359209	त नु पा	-0.044076
-0.922169	ना ग रा	-0.044076
-1.147591	स ं ज	-0.044076
-0.650465	सा न ं	-0.044076
-1.805810	 वि हा	-0.044076
-1.836404	 ना गा	-0.044076
-1.074823	दु म ती	-0.044076
-1.118901	 व् र	-0.044076
-1.693778	 वि क	-0.044076
-0.584099	नु पा </s>
-1.463536	 कु सु	-0.044076
-1.878058	ं द नी	-0.044076
-0.490460	ला घि मा	-0.044076
-0.609487	ं धु </s>
-0.584190	रा म् या	-0.044076
-0.054824	जी त </s>
-1.468490	<s> आ शि	-0.044076
-0.624166	ग रि का	-0.044076
-1.583906	अ र् चि	-0.044076
-0.851196	त् रे य	-0.044076
-0.276228	प् ता </s>
-0.171368	हु ष </s>
-0.387948	च ं द	-0.169014
-0.861921	ना दी दा	-0.044076
-1.781478	क ला नि	-0.044076
-0.594031	र भु </s>
-0.036612	व ती </s>
-1.066403	 चि त्त	-0.044076
-2.245901	<s> अ ज	-0.044076
-0.839564	ज रा ं	-0.044076
-0.634662	का जो ल	-0.044076
-0.891074	् त् रे	-0.044076
-1.266880	 ह री	-0.044076
-0.949342	आ र् य	-0.044076
-1.726888	म न ज्	-0.044076
-0.717311	आ द र्	-0.044076
-1.481028	व ल कि	-0.044076
-0.849558	ए का म्	-0.044076
-1.490286	 ता लि	-0.044076
-0.074753	र त </s>
-0.207643	<s> ए क	-0.140986
-0.513335	वै ज य	-0.044076
-0.690316	बि ं द	-0.044076
-1.523932	 दि वा	-0.044076
-0.727445	शु तो ष	-0.044076
-1.128289	 वा ना	-0.044076
-0.304860	म के श	-0.044076
-0.064537	ं श </s>
-1.958527	<s>  रु	-0.095228
-0.855564	इ हि ना	-0.044076
-1.458321	<s>  ह	-0.345106
-0.357486	द प् र	-0.044076
-1.450094	 नी ष	-0.044076
-0.870978	त नि श्	-0.044076
-0.180490	ष म </s>
-2.730361	<s>  शु	-0.345106
-1.378962	 ध र्	-0.044076
-0.782802	मा ने न्	-0.044076
-0.319746	ज्ज न </s>
-0.513335	भि ज य	-0.044076
-0.890607	स ल मा	-0.044076
-2.151633	<s> उ पे	-0.044076
-1.938409	 त था	-0.044076
-1.177395	न मा ली	-0.044076
-0.976526	र ह री	-0.044076
-3.353843	<s>  ज्ञा	-0.044076
-0.837696	रो का न्	-0.044076
-1.366330	अ भि मा	-0.044076
-0.291367	न ं द	-0.287114
-0.786238	या न ं	-0.044076
-0.953508	रा ध् वा	-0.044076
-1.573048	ं ग ना	-0.044076
-3.141224	<s>  था	-0.044076
-0.863060	दि वा क	-0.044076
-0.765898	द् रु प	-0.044076
-0.379524	म सी </s>
-0.829735	ई नी का	-0.044076
-0.791739	अ रि ं	-0.044076
-1.820369	रा ज ता	-0.044076
-1.804834	 ह क्कू	-0.044076
-0.205507	ग रा ज	-0.345106
-1.931334	श् री कि	-0.044076
-0.838179	द यु म्	-0.044076
-0.169658	दी ती </s>
-0.850681	त् वे सा	-0.044076
-0.877491	र क ला	-0.044076
-0.425976	प द </s>
-0.163173	र ण </s>
-0.891978	ही रा ला	-0.044076
-0.763785	 जु ग	-0.044076
-0.793365	हा स </s>
-0.641805	मि शि ता	-0.044076
-2.511905	<s> अ भ्	-0.044076
-1.313651	न व ं	-0.044076
-0.810713	झ ल क	-0.044076
-0.266391	दे व </s>
-0.853073	कि र ण	-0.044076
-0.437402	यू रा </s>
-0.162599	फि या </s>
-0.844885	 धी र	-0.044076
-0.070511	प ति </s>
-0.051155	रि का </s>
-1.129766	आ त् मा	-0.044076
-0.304860	ना के श	-0.044076
-0.079163	हि नी </s>
-2.366066	<s>  सि	-0.169014
-0.227194	र् जु न	-0.345106
-0.051141	वि नी </s>
-1.567634	अ न मो	-0.044076
-1.163858	आ का र	-0.044076
-0.402346	क मा न	-0.345106
-0.478622	य ना </s>
-1.015007	द् ध </s>
-0.156875	न् यु </s>
-0.678108	र रे खा	-0.044076
-0.256511	र् वी </s>
-0.513335	न् ज य	-0.044076
-1.798637	 मा धु	-0.044076
-0.683889	अ स् मि	-0.044076
-1.074889	हा र त	-0.044076
-2.023352	<s> उ मि	-0.044076
-1.800825	श् री ल	-0.044076
-0.549588	दु बा ला	-0.044076
-0.909459	त ना ज़	-0.044076
-1.427514	 वै द्	-0.044076
-0.650465	र्रा न ं	-0.044076
-0.810713	बा ल क	-0.044076
-0.797026	मु श् ता	-0.044076
-1.582708	ं दु जा	-0.044076
-1.186283	ब ल वी	-0.044076
-1.599591	 वा च	-0.044076
-0.226285	क् ष </s>
-0.279325	ह त </s>
-0.912077	रा न् त	-0.044076
-0.352204	ल का </s>
-1.857096	 त रि	-0.044076
-0.893171	का ल का	-0.044076
-1.435694	 का म	-0.044076
-1.295397	 श र	-0.044076
-0.886270	ता ज दा	-0.044076
-0.079379	मि ला </s>
-0.131088	भ न </s>
-0.131088	ह न </s>
-0.833463	त रू ण	-0.044076
-1.769312	 सा लि	-0.044076
-1.422652	 वा म	-0.044076
-0.736010	ता रू </s>
-0.867993	क री म	-0.044076
-0.365614	<s> ई श्	-0.743046
-0.633267	त ल्ली न	-0.044076
-1.007931	ं दि रा	-0.044076
-0.657336	र च ना	-0.044076
-1.596239	 श ला	-0.044076
-1.197978	र् मि </s>
-0.456737	ला दू </s>
-0.864735	नि स् था	-0.044076
-0.247599	हु ल </s>
-0.648568	सो मे श्	-0.044076
-0.835514	लु क मा	-0.044076
-1.920279	 र मि	-0.044076
-1.017379	 रो ह	-0.044076
-0.494988	तो म </s>
-0.629386	ँ सा </s>
-0.276228	नि ता </s>
-0.803103	 गा य	-0.044076
-1.538282	 दि पा	-0.044076
-1.658767	स ं प	-0.044076
-1.291338	र ती क	-0.044076
-0.561188	भि मा न	-0.044076
-0.483996	ब स्सु म	-0.044076
-1.884422	 त प	-0.044076
-1.812098	 ना दि	-0.044076
-0.847902	चि त् रा	-0.044076
-0.757254	रा से ली	-0.044076
-0.708177	मा ध व	-0.044076
-0.716349	रु पे श्	-0.044076
-0.106173	ना थी </s>
-0.843668	ृ दु ल	-0.044076
-0.514628	रा जे श्	-0.044076
-0.573173	व कु मा	-0.044076
-0.171368	यु ष </s>
-1.866599	 स रि	-0.044076
-1.059850	क न क	-0.044076
-0.416375	न जी त	-0.044076
-0.497022	<s> ऐ श्	-0.044076
-1.760999	 ह मी	-0.044076
-0.975158	स ह र्	-0.044076
-1.387954	अ म र	-0.044076
-0.437402	द् रा </s>
-1.273355	 का न	-0.044076
-0.226511	कि शो र	-0.345106
-0.898791	वा री ज़ा	-0.044076
-0.220110	य ण </s>
-1.731039	 क म	-0.044076
-0.809496	उ ल् हा	-0.044076
-0.176047	धि नी </s>
-1.491672	 व ं	-0.044076
-0.425976	सा द </s>
-0.077286	मि ष </s>
-3.108838	<s>  दु	-0.044076
-0.759557	वा र् या	-0.044076
-0.176047	सा नी </s>
-0.176047	शी नी </s>
-1.080403	 क र	-0.044076
-1.835405	 सा ँ	-0.044076
-1.390972	<s>  क	-0.270472
-0.727468	न् ना थ	-0.044076
-0.698194	बा बु ल	-0.044076
-1.176466	ध र् मे	-0.044076
-0.248663	वि शी </s>
-1.198277	हे मा व	-0.044076
-1.152407	र् श न	-0.044076
-1.669949	द् र वा	-0.044076
-0.247599	धु ल </s>
-0.845996	ल म णि	-0.044076
-0.814700	र धि या	-0.044076
-1.874935	 वि त्ता	-0.044076
-1.201669	त म सी	-0.044076
-1.688299	अ ं कि	-0.044076
-0.176047	रु नी </s>
-3.353843	<s>  तौ	-0.044076
-0.490961	इ ब् रा	-0.044076
-1.264984	 वे नि	-0.044076
-1.132143	 मो नी	-0.044076
-0.147235	ज य </s>
-0.703658	न् हे </s>
-0.816408	मे ं द्	-0.044076
-1.737624	<s> अ ना	-0.044076
-0.501046	का मा </s>
-1.071515	सा ग र	-0.044076
-1.348548	 सु बि	-0.044076
-0.891978	थु रा या	-0.044076
-3.353843	<s>  सो	-0.044076
-0.131088	हा न </s>
-0.772328	ह बी बा	-0.044076
-1.169441	क ल श	-0.044076
-1.133935	स ह ज	-0.044076
-1.181405	त् प ला	-0.044076
-0.668127	श् वि न	-0.044076
-1.657599	 ह रि	-0.044076
-0.942297	मो ह न	-0.044076
-1.165334	अ श् वि	-0.044076
-0.840317	वि प् ल	-0.044076
-0.833456	ता हि र	-0.044076
-0.801962	भि न व	-0.044076
-1.336480	स र् जे	-0.044076
-1.641530	<s> अ वि	-0.044076
-0.092045	मौ ली </s>
-0.369777	ना दा </s>
-0.875804	व ज रा	-0.044076
-2.681049	<s>  द्	-0.044076
-3.353843	<s>  थे	-0.044076
-1.341949	ग त प्	-0.044076
-0.866153	अ दि श्	-0.044076
-0.425976	म्म द </s>
-0.829464	 ते जे	-0.044076
-0.754946	रि षि त	-0.044076
-0.828020	कै ला श	-0.044076
-0.534774	सी दा स	-0.044076
-0.866950	कु वि रा	-0.044076
-1.338726	ग त वी	-0.044076
-0.877965	न् ता म	-0.044076
-0.855074	ज् हा ला	-0.044076
-1.195980	स ं ता	-0.044076
-0.169658	ल ती </s>
-0.894310	ह न् स	-0.044076
-0.323369	रा री </s>
-0.574129	न मो ल	-0.044076
-2.093114	<s> आ ये	-0.044076
-0.296349	शा ल </s>
-1.965740	 क ल्	-0.044076
-1.185363	आ का श	-0.044076
-1.050988	 कौ श	-0.044076
-0.279325	कि त </s>
-0.652948	 दी प	-0.044076
-0.511046	न् नु </s>
-1.850101	 स त्	-0.044076
-3.176221	<s>  ते	-0.044076
-0.974526	 ध न	-0.044076
-0.858970	शि वा न्	-0.044076
-1.068616	व् यो मा	-0.044076
-1.397538	अ भि ला	-0.044076
-0.854045	म् बु ना	-0.044076
-1.106921	उ पा ला	-0.044076
-1.739283	 वि ज	-0.044076
-1.257010	 वे दा	-0.044076
-0.044366	नी षा </s>
-1.149539	 हु मा	-0.044076
-1.198363	का म दे	-0.044076
-1.894084	 वि क्की	-0.044076
-0.859133	प शि खा	-0.044076
-1.047127	ं जि नी	-0.044076
-0.700908	नि न् द	-0.044076
-0.840991	गो म ती	-0.044076
-0.769590	क् मि नी	-0.044076
-0.659069	का त् य	-0.044076
-0.796589	यो त् स	-0.044076
-0.377921	ध न </s>
-0.811803	यु म् ना	-0.044076
-1.478051	व ल जी	-0.044076
-0.895331	प् त री	-0.044076
-1.134779	शा ली न	-0.044076
-0.304860	मु के श	-0.044076
-0.958999	व नि या	-0.044076
-0.751566	यो मा ं	-0.044076
-1.560662	कु ं शी	-0.044076
-0.606709	श ना थ	-0.044076
-0.850858	आ र ती	-0.044076
-0.279325	म्म त </s>
-0.357486	दु प् र	-0.044076
-0.412912	शो र </s>
-0.864233	थ ं क	-0.044076
-1.254894	र् य  	-0.044076
-0.703825	जे श् री	-0.044076
-0.659069	स् त् य	-0.044076
-1.337453	 दे ली	-0.044076
-0.916918	शा न् य	-0.044076
-1.743441	 न र	-0.044076
-0.732072	र से न	-0.044076
-0.973906	 कु ल	-0.044076
-0.281527	टी ना </s>
-1.432855	त न् नि	-0.044076
-0.729444	मो नी षा	-0.044076
-0.534774	प्पा दा स	-0.044076
-1.706854	<s>  कु	-0.470044
-1.460176	 श् या	-0.044076
-1.095023	दि पा ं	-0.044076
-0.900941	ती र् थ	-0.044076
-0.561188	त् मा न	-0.044076
-0.794275	 था नी	-0.044076
-0.494486	स फि या	-0.044076
-1.005300	व् या नी	-0.044076
-0.202502	प त्ति </s>
-0.079163	मि नी </s>
-1.434825	म ृ दु	-0.044076
-1.189348	त् या न	-0.044076
-0.519211	न रे श	-0.044076
-0.610206	ं भ व	-0.044076
-0.064537	मे श </s>
-1.458347	 नी लो	-0.044076
-0.856780	न स् वि	-0.044076
-1.877283	 न वी	-0.044076
-0.761490	श् र् व	-0.044076
-1.503853	 मु ह	-0.044076
-1.164871	उ र् मि	-0.044076
-0.564834	वे नि का	-0.044076
-1.508610	<s>  च	-0.400623
-0.802486	मि रि य	-0.044076
-1.184111	धी र ज	-0.044076
-0.561188	ल मा न	-0.044076
-0.748342	से म ं	-0.044076
-0.807595	जी व </s>
-1.405657	अ ं शु	-0.044076
-0.953933	ला क् षी	-0.044076
-3.141224	<s>  जे	-0.044076
-1.175912	हा का ली	-0.044076
-0.541045	चि व </s>
-0.753091	रा च न्	-0.044076
-0.826983	म ं त	-0.345106
-1.283616	इ क् शा	-0.044076
-0.279325	यो त </s>
-1.461935	 ति या	-0.044076
-0.763406	ल मि ल	-0.044076
-1.148571	कु ल र	-0.044076
-0.607963	 ज य	-0.044076
-0.694973	ना थि म	-0.044076
-1.491073	<s> ई श	-0.044076
-1.689525	 सा ज	-0.044076
-2.331089	<s> अ ग	-0.044076
-0.178849	रू ण </s>
-0.950549	र् मि ला	-0.044076
-0.712156	हु मै ला	-0.044076
-0.446929	गी श् व	-0.044076
-0.279325	रू त </s>
-0.515392	इ रा </s>
-0.272794	ना रा य	-0.521197
-0.664276	अ भ् रो	-0.044076
-1.180601	द म य	-0.044076
-1.101174	त न य	-0.044076
-0.888227	सा त् वी	-0.044076
-0.184957	क र </s>
-0.259310	री ति </s>
-0.949009	अ च प	-0.044076
-0.874411	आ स मा	-0.044076
-0.895285	 चा रु	-0.044076
-0.809839	मा रू त	-0.044076
-1.865668	 वि जु	-0.044076
-1.272941	ल क ृ	-0.044076
-1.076572	अ मि ष	-0.044076
-0.541045	जि व </s>
-0.124039	तु जा </s>
-1.907592	 त ब	-0.044076
-0.694421	रु चि रा	-0.044076
-1.531574	 नि ले	-0.044076
-0.712021	त पा ल	-0.044076
-1.727589	 सा मि	-0.044076
-0.663529	 सै षा	-0.044076
-0.778333	 मा न	-0.044076
-1.120344	मा ध वी	-0.044076
-1.433676	द् र द	-0.044076
-0.541045	ल व </s>
-0.248663	न् शी </s>
-0.698194	र सू ल	-0.044076
-1.872128	 का मे	-0.044076
-0.606709	बु ना थ	-0.044076
-0.281527	ली ना </s>
-2.515044	<s>  से	-0.220167
-0.750821	अ शो क	-0.044076
-0.870742	र वि न	-0.044076
-2.205807	<s>  मि	-0.044076
-1.778006	 ह सी	-0.044076
-1.515308	स ं जी	-0.044076
-1.092133	 हे मे	-0.044076
-1.411033	 नी ल	-0.044076
-0.456737	शि ल्ला </s>
-1.565228	 रा ध्	-0.044076
-0.648135	वा फ क	-0.044076
-1.564299	अ नु मो	-0.044076
-0.973086	म नी षा	-0.044076
-1.932068	 त रू	-0.044076
-1.089954	ह नु मा	-0.044076
-1.353647	व ं शी	-0.044076
-0.446929	पे श् व	-0.044076
-0.854045	 मै ना	-0.044076
-0.247599	बु ल </s>
-1.912541	 क वा	-0.044076
-0.719733	न् नो ली	-0.044076
-2.064953	<s> इ ष्	-0.044076
-0.097570	क् षि ता	-0.521197
-0.352204	ला का </s>
-1.499194	न न् ज	-0.044076
-0.750821	रा गि नी	-0.044076
-0.606709	क ना थ	-0.044076
-0.281527	र् ना </s>
-0.558106	न् दी </s>
-1.865141	 व नि	-0.044076
-3.108838	<s>  ले	-0.044076
-0.512427	हि ल् या	-0.044076
-0.600999	रा ला ल	-0.044076
-1.156481	मे श् र्	-0.044076
-1.040568	ग ं </s>
-1.260513	 ती मि	-0.044076
-1.864237	<s>  वा	-0.131226
-1.186946	 वा नि	-0.044076
-0.141336	धि का </s>
-1.374881	 दे व्	-0.044076
-2.065758	 स फि	-0.044076
-2.245901	<s> अ रि	-0.044076
-0.128203	र ती </s>
-0.659069	ृ त् य	-0.044076
-1.173535	श र या	-0.044076
-0.753566	ँ पि का	-0.044076
-0.501046	हु मा </s>
-1.186684	 रा म	-0.044076
-1.820475	<s> अ य	-0.044076
-1.134615	ता नि रि	-0.044076
-0.973441	वि न ं	-0.044076
-0.892740	ता नी मा	-0.044076
-0.437402	द रा </s>
-0.536949	दि व् या	-0.044076
-0.696580	दि पे न	-0.044076
-1.462686	 ला दू	-0.044076
-0.428733	ल वी र	-0.044076
-0.821759	दा मो द	-0.044076
-0.657600	उ ज्ज वा	-0.044076
-1.541981	 वा री	-0.044076
-0.456737	जी तू </s>
-0.440590	ता रे श	-0.044076
-0.960105	ह ँ सा	-0.044076
-0.412912	की र </s>
-0.806266	व ल्ल भा	-0.044076
-0.314959	द ये श	-0.044076
-0.785448	नि मि ष	-0.044076
-1.139726	वि दि शा	-0.044076
-1.343139	 दी पा	-0.044076
-0.191212	भ व </s>
-0.895871	इ ना या	-0.044076
-1.675187	 सा त्	-0.044076
-0.526819	मे श् व	-0.044076
-0.962380	इ न् द	-0.044076
-0.816408	हे ं द्	-0.044076
-1.113727	व नि ता	-0.044076
-0.624494	ल वे श	-0.044076
-2.472930	<s> अ तु	-0.044076
-1.889075	<s> उ ता	-0.044076
-0.248663	व शी </s>
-0.088945	मि का </s>
-0.302021	वा ला </s>
-0.912223	ता म णी	-0.044076
-1.295515	 त न	-0.044076
-0.874290	अ ति श्	-0.044076
-0.494486	अ थ् या	-0.044076
-1.949740	 स हा	-0.044076
-1.462686	 ला घि	-0.044076
-0.785165	अ ने क	-0.044076
-0.501046	ष् मा </s>
-1.404874	त् य  	-0.044076
-1.703853	अ ं गू	-0.044076
-0.858755	तु स् ती	-0.044076
-1.721682	 त म	-0.044076
-0.652477	मा ं ग	-0.345106
-0.760689	ट मु </s>
-0.140366	ती श </s>
-1.177442	<s> आ न	-0.220167
-0.934297	ल् पि ता	-0.044076
-0.238709	क ला </s>
-0.989070	 का ं	-0.044076
-0.830089	म हु आ	-0.044076
-1.574884	 सा ं	-0.044076
-1.140454	आ यु श	-0.044076
-0.766418	ता क् षी	-0.044076
-0.839796	व सु प	-0.044076
-0.591794	वै ष् ण	-0.044076
-0.412912	हि र </s>
-0.401918	द् गि ता	-0.044076
-0.256511	शा वी </s>
-0.507835	हा फ़ि ज़ा	-0.044076
-0.369777	शी दा </s>
-0.162599	धि या </s>
-0.533139	ह ज </s>
-0.867847	उ द् य	-0.044076
-0.308483	बू ब </s>
-0.845876	म रा </s>
-1.757689	न् द् रे	-0.044076
-0.751821	ं ज य	-0.044076
-1.119924	<s> अ नु	-0.095228
-1.125213	सा हि ब	-0.044076
-0.075042	त् रा </s>
-0.140366	ई श </s>
-1.787192	 सा धि	-0.044076
-1.573380	र ं जी	-0.044076
-0.281527	र ना </s>
-0.508094	के त </s>
-1.722162	ला ल म	-0.044076
-1.123689	आ शी र्	-0.044076
-0.881930	र् ज व	-0.044076
-1.663966	 वि ता	-0.044076
-2.184196	<s> अ व	-0.044076
-0.832189	दि न क	-0.044076
-0.853073	च र ण	-0.044076
-1.110714	र् शी नी	-0.044076
-0.858702	था ग ता	-0.044076
-0.861567	रु ष म	-0.044076
-1.586226	 सा नी	-0.044076
-0.392586	दि शा </s>
-0.438420	श् व री	-0.743046
-1.969862	ं द कि	-0.044076
-0.086368	मा न </s>
-1.074889	श र त	-0.044076
-0.931522	न ट व	-0.044076
-1.407513	र् य मा	-0.044076
-1.312025	ह रि म	-0.044076
-0.332003	चि त </s>
-0.233710	ध र </s>
-0.288195	ल य </s>
-1.066864	ह ृ द	-0.044076
-0.650480	श मी </s>
-1.408805	ह रि ग	-0.044076
-2.019465	<s> आ रु	-0.044076
-0.963954	व ज् रा	-0.044076
-0.377921	या न </s>
-0.876278	द ग ति	-0.044076
-0.174185	ं ता </s>
-0.298337	वा की </s>
-0.773500	 जि ते	-0.044076
-0.880074	प मा ला	-0.044076
-0.319746	जु न </s>
-0.883057	इ र फा	-0.044076
-1.513551	 म ृ	-0.044076
-1.162493	श् मि था	-0.044076
-0.399723	रि क </s>
-1.965837	 म हु	-0.044076
-1.524604	अ नु प	-0.044076
-0.099370	ब र </s>
-0.758181	र् थ ं	-0.044076
-0.766042	म् बि नी	-0.044076
-0.169658	न् ती </s>
-0.736177	द त्ता ्	-0.044076
-0.271669	मा री </s>
-1.342032	का न न	-0.044076
-0.890318	दि पा श्	-0.044076
-1.904151	 रा बी	-0.044076
-1.481508	 च र	-0.044076
-0.501109	उ ज्जा नि	-0.044076
-0.196108	म य </s>
-0.807364	रि धि मा	-0.044076
-0.859551	गा म नी	-0.044076
-0.750390	ज दा र	-0.044076
-1.939676	 स प्	-0.044076
-0.562066	द कि शो	-0.044076
-0.875835	गो दा व	-0.044076
-0.972371	रा ं ता	-0.044076
-0.165816	दि रा </s>
-1.190253	अ मा ले	-0.044076
-0.951860	च प ल	-0.044076
-0.826620	ह मी दा	-0.044076
-0.674841	रु द् ध	-0.044076
-0.662041	जि ते न्	-0.044076
-1.600642	 द त्ता	-0.044076
-0.531455	ज दु ला	-0.044076
-0.955092	ह स न	-0.044076
-0.342030	ष् य </s>
-1.980124	 क बी	-0.044076
-0.404884	शा यु </s>
-0.864735	हा स् वे	-0.044076
-1.513621	 का लि	-0.044076
-1.783706	 ता रि	-0.044076
-0.994152	र वि </s>
-0.805754	त् कि ला	-0.044076
-0.304860	षि के श	-0.044076
-0.696232	त् वा </s>
-0.145203	कु मा र	-0.521197
-1.094629	स चि व	-0.044076
-0.750269	ना सि र	-0.044076
-0.125269	शी ला </s>
-1.571174	मा ला ई	-0.044076
-0.669943	दी क् षि	-0.044076
-1.897861	 न दी	-0.044076
-0.796336	सू म ल	-0.044076
-0.911144	सि ं धु	-0.044076
-1.008228	हे म रा	-0.044076
-0.586528	ल व् य	-0.044076
-0.890570	द् वि पा	-0.044076
-0.486244	मा र </s>
-2.454680	<s> अ ने	-0.044076
-0.162599	भ् या </s>
-1.175451	अ मा री	-0.044076
-0.845886	र के श्	-0.044076
-1.260396	न् म यी	-0.044076
-2.018442	<s>  ध	-0.248196
-1.128460	सा मि या	-0.044076
-0.731913	दु हा स	-0.044076
-3.256014	<s>  तो	-0.044076
-0.028568	पा ली </s>
-0.392389	नि ले श	-0.044076
-0.884682	नि श् क	-0.044076
-0.248663	री शी </s>
-0.774931	दि ला व	-0.044076
-0.870311	न वा ज	-0.044076
-0.881497	उ द् ध	-0.044076
-1.535265	म धु बा	-0.044076
-1.095742	अ नु ज	-0.044076
-0.719461	शो भ न	-0.044076
-0.810713	ति ल क	-0.044076
-1.718840	म न जी	-0.044076
-0.641701	रि पु रा	-0.044076
-1.919462	 न हु	-0.044076
-1.786765	 ह ँ	-0.044076
-0.745874	रु पा ली	-0.044076
-0.202502	त फा </s>
-0.302021	पा ला </s>
-0.245491	र् वा द	-0.345106
-3.353843	<s>  जै	-0.044076
-0.816408	जे ं द्	-0.044076
-0.808274	ं धि नी	-0.044076
-0.592735	प मा </s>
-1.261263	 द म	-0.044076
-0.572827	वि कु ं	-0.044076
-0.093664	ं द् र	-0.220167
-0.890042	शौ क त	-0.044076
-2.931876	<s>  वी	-0.044076
-0.604484	वे न् द्	-0.044076
-1.120535	उ पा स	-0.044076
-0.859471	क नि रा	-0.044076
-0.202502	म थ </s>
-0.585265	र म </s>
-1.303387	<s> उ द्	-0.044076
-0.256511	त् वी </s>
-1.964741	 त ल्ली	-0.044076
-0.109586	स वी </s>
-0.213567	सै षा </s>
-3.353843	<s>  ख़ु	-0.044076
-0.328683	हि ते श	-0.044076
-1.210332	<s> आ त्	-0.220167
-1.462568	 मि शा	-0.044076
-1.127422	व् यो मे	-0.044076
-0.878275	अ ग स्	-0.044076
-0.812207	ल र ं	-0.044076
-0.955364	द् र भा	-0.044076
-0.302021	हा ला </s>
-0.845996	रो म णि	-0.044076
-1.530149	<s> उ पा	-0.044076
-0.035304	रि या </s>
-1.071910	सा हि ल	-0.044076
-1.144564	व् या ग	-0.044076
-0.140366	दे श </s>
-0.055152	स ना </s>
-0.279325	ज त </s>
-0.912076	र र थी	-0.044076
-0.766460	गा य ं	-0.044076
-2.531247	<s>  कै	-0.220167
-1.278468	अ म ृ	-0.044076
-1.173205	 गो वि	-0.044076
-1.098340	 द् वि	-0.044076
-1.111740	त म न्	-0.044076
-0.809021	मा ले ं	-0.044076
-1.680725	अ ं कु	-0.044076
-1.876595	द् र मो	-0.044076
-1.427514	 वै भ	-0.044076
-2.717499	<s>  ही	-0.044076
-0.888443	मा रु धा	-0.044076
-0.563080	ना ले खा	-0.044076
-0.769196	आ रु ष	-0.044076
-0.986975	न न् द	-0.044076
-0.367145	मा लि नी	-0.345106
-0.391750	ध व </s>
-0.609039	धि रा ज	-0.044076
-1.979376	<s> उ रि	-0.044076
-0.198772	ता भ </s>
-0.906511	त् ना ले	-0.044076
-0.875575	उ न् न	-0.044076
-1.423743	म ल न	-0.044076
-1.532492	<s> ई नि	-0.044076
-0.759557	तु र् या	-0.044076
-1.541272	<s> ई शा	-0.044076
-0.392389	म ले श	-0.044076
-0.793603	व था मा	-0.044076
-1.184867	ं स मु	-0.044076
-0.169658	र् ती </s>
-0.276228	वे ता </s>
-0.653206	र् भु ज	-0.044076
-1.079107	वा म दे	-0.044076
-2.404126	<s> अ धि	-0.044076
-0.818825	ना र द	-0.044076
-1.759654	<s> आ र	-0.044076
-0.620071	का म </s>
-0.492972	क पो ता	-0.044076
-2.532788	<s> अ थ्	-0.044076
-0.704708	 गू ं	-0.044076
-0.494988	धा म </s>
-0.773288	च ँ पि	-0.044076
-1.770903	 त ं	-0.044076
-1.489338	 हि म्म	-0.044076
-1.892425	 रा जे	-0.044076
-0.064537	ये श </s>
-0.352204	बि का </s>
-0.169658	स् ती </s>
-0.772124	हु आ </s>
-0.711301	वि हा न	-0.044076
-0.629386	मि सा </s>
-1.852212	 ता मी	-0.044076
-1.474159	 व ना	-0.044076
-0.965641	र नी त	-0.044076
-0.657336	रॉ च ना	-0.044076
-0.707844	ज़ हा र	-0.044076
-1.360520	प् र का	-0.044076
-0.839951	षा र का	-0.044076
-0.675874	हू रि या	-0.044076
-1.675586	त् रि पु	-0.044076
-0.865765	स मु ख	-0.044076
-1.491019	 क मा	-0.044076
-0.561188	ति मा न	-0.044076
-0.470672	र क </s>
-0.412912	ति र </s>
-1.079107	हि म दे	-0.044076
-1.939676	 स स्	-0.044076
-0.927614	ओ म रा	-0.044076
-0.585265	यो म </s>
-0.887445	उ स री	-0.044076
-2.139371	<s> उ ज्	-0.044076
-0.799840	इ न् द्	-0.044076
-1.268664	ए क द	-0.044076
-1.522226	 ति रू	-0.044076
-0.818846	मु स् त	-0.044076
-0.850736	पा मा लि	-0.044076
-0.996424	 हि म	-0.044076
-1.416639	न् दु प्	-0.044076
-0.319746	प न </s>
-0.328508	जि ता </s>
-0.946367	उ र् व	-0.044076
-1.367011	 तु र्	-0.044076
-0.963795	रा व ती	-0.044076
-1.041421	ं द म	-0.044076
-0.955702	ृ द य	-0.044076
-0.505038	ण वी र	-0.044076
-0.796323	र् वि का	-0.044076
-0.116513	दि ता </s>
-0.357714	प ला </s>
-1.944334	 व सु	-0.044076
-0.392586	क् शा </s>
-2.122310	<s> इ ब्	-0.044076
-1.782639	 मा ख	-0.044076
-0.519174	ग जी व	-0.044076
-0.717311	नु द र्	-0.044076
-1.283790	 दा रि	-0.044076
-1.913847	 र क्	-0.044076
-1.592003	ं त या	-0.044076
-0.902052	ला व र	-0.044076
